<?xml version="1.0"?>
<opencv_storage>
<cascade>
  <stageType>BOOST</stageType>
  <featureType>HAAR</featureType>
  <height>24</height>
  <width>24</width>
  <stageParams>
    <boostType>GAB</boostType>
    <minHitRate>9.9500000476837158e-01</minHitRate>
    <maxFalseAlarm>4.0000000596046448e-01</maxFalseAlarm>
    <weightTrimRate>9.4999999999999996e-01</weightTrimRate>
    <maxDepth>1</maxDepth>
    <maxWeakCount>100</maxWeakCount></stageParams>
  <featureParams>
    <maxCatCount>0</maxCatCount>
    <featSize>1</featSize>
    <mode>BASIC</mode></featureParams>
  <stageNum>15</stageNum>
  <stages>
    <!-- stage 0 -->
    <_>
      <maxWeakCount>12</maxWeakCount>
      <stageThreshold>-7.7565652132034302e-01</stageThreshold>
      <weakClassifiers>
        <_>
          <internalNodes>
            0 -1 75 1.3686154037714005e-02</internalNodes>
          <leafValues>
            -4.7848102450370789e-01 6.7951804399490356e-01</leafValues></_>
        <_>
          <internalNodes>
            0 -1 14 4.0377996861934662e-02</internalNodes>
          <leafValues>
            -3.4576365351676941e-01 7.1618020534515381e-01</leafValues></_>
        <_>
          <internalNodes>
            0 -1 257 -1.0776096954941750e-02</internalNodes>
          <leafValues>
            5.0214427709579468e-01 -3.3163711428642273e-01</leafValues></_>
        <_>
          <internalNodes>
            0 -1 145 -5.9364177286624908e-02</internalNodes>
          <leafValues>
            -7.7719670534133911e-01 2.1908637881278992e-01</leafValues></_>
        <_>
          <internalNodes>
            0 -1 278 2.3735337890684605e-03</internalNodes>
          <leafValues>
            -3.1335389614105225e-01 4.9428334832191467e-01</leafValues></_>
        <_>
          <internalNodes>
            0 -1 178 7.3825744912028313e-03</internalNodes>
          <leafValues>
            -3.0307826399803162e-01 4.5718654990196228e-01</leafValues></_>
        <_>
          <internalNodes>
            0 -1 182 -1.0704054730013013e-03</internalNodes>
          <leafValues>
            2.7626430988311768e-01 -4.5538353919982910e-01</leafValues></_>
        <_>
          <internalNodes>
            0 -1 56 2.1668557077646255e-02</internalNodes>
          <leafValues>
            -2.2027131915092468e-01 5.4863917827606201e-01</leafValues></_>
        <_>
          <internalNodes>
            0 -1 66 -2.5914888828992844e-02</internalNodes>
          <leafValues>
            7.2662508487701416e-01 -1.9885551929473877e-01</leafValues></_>
        <_>
          <internalNodes>
            0 -1 265 9.0415459126234055e-03</internalNodes>
          <leafValues>
            -1.7189680039882660e-01 6.4872151613235474e-01</leafValues></_>
        <_>
          <internalNodes>
            0 -1 109 -4.8111267387866974e-02</internalNodes>
          <leafValues>
            6.1129862070083618e-01 -2.3270711302757263e-01</leafValues></_>
        <_>
          <internalNodes>
            0 -1 226 -4.7124032862484455e-03</internalNodes>
          <leafValues>
            5.5612695217132568e-01 -1.7326541244983673e-01</leafValues></_></weakClassifiers></_>
    <!-- stage 1 -->
    <_>
      <maxWeakCount>13</maxWeakCount>
      <stageThreshold>-7.5039637088775635e-01</stageThreshold>
      <weakClassifiers>
        <_>
          <internalNodes>
            0 -1 318 -7.1112182922661304e-03</internalNodes>
          <leafValues>
            6.7842030525207520e-01 -2.0542635023593903e-01</leafValues></_>
        <_>
          <internalNodes>
            0 -1 12 3.3375367522239685e-02</internalNodes>
          <leafValues>
            -2.3760107159614563e-01 6.8229418992996216e-01</leafValues></_>
        <_>
          <internalNodes>
            0 -1 61 3.5192161798477173e-02</internalNodes>
          <leafValues>
            -4.2160117626190186e-01 3.8093018531799316e-01</leafValues></_>
        <_>
          <internalNodes>
            0 -1 197 6.5131887793540955e-02</internalNodes>
          <leafValues>
            1.9060982763767242e-01 -8.5043394565582275e-01</leafValues></_>
        <_>
          <internalNodes>
            0 -1 372 -1.6280487179756165e-02</internalNodes>
          <leafValues>
            7.3396247625350952e-01 -1.8712970614433289e-01</leafValues></_>
        <_>
          <internalNodes>
            0 -1 345 1.3096914626657963e-02</internalNodes>
          <leafValues>
            -2.0944260060787201e-01 5.4521238803863525e-01</leafValues></_>
        <_>
          <internalNodes>
            0 -1 122 -8.9670039713382721e-02</internalNodes>
          <leafValues>
            -6.9568943977355957e-01 1.6183912754058838e-01</leafValues></_>
        <_>
          <internalNodes>
            0 -1 48 -3.5733155906200409e-02</internalNodes>
          <leafValues>
            6.8920385837554932e-01 -1.5430043637752533e-01</leafValues></_>
        <_>
          <internalNodes>
            0 -1 35 1.5998549759387970e-02</internalNodes>
          <leafValues>
            -2.0823670923709869e-01 4.8772236704826355e-01</leafValues></_>
        <_>
          <internalNodes>
            0 -1 149 -6.5755718387663364e-03</internalNodes>
          <leafValues>
            3.0692183971405029e-01 -3.2931241393089294e-01</leafValues></_>
        <_>
          <internalNodes>
            0 -1 90 1.5362014994025230e-02</internalNodes>
          <leafValues>
            -1.9805370271205902e-01 5.4942506551742554e-01</leafValues></_>
        <_>
          <internalNodes>
            0 -1 180 -5.9594260528683662e-03</internalNodes>
          <leafValues>
            3.6607578396797180e-01 -2.7569043636322021e-01</leafValues></_>
        <_>
          <internalNodes>
            0 -1 119 -2.4695438332855701e-03</internalNodes>
          <leafValues>
            -6.4946788549423218e-01 1.7157240211963654e-01</leafValues></_></weakClassifiers></_>
    <!-- stage 2 -->
    <_>
      <maxWeakCount>19</maxWeakCount>
      <stageThreshold>-7.2047412395477295e-01</stageThreshold>
      <weakClassifiers>
        <_>
          <internalNodes>
            0 -1 76 1.4430194161832333e-02</internalNodes>
          <leafValues>
            -2.0614035427570343e-01 6.0988295078277588e-01</leafValues></_>
        <_>
          <internalNodes>
            0 -1 159 -3.0811857432126999e-02</internalNodes>
          <leafValues>
            4.8473232984542847e-01 -2.8107950091362000e-01</leafValues></_>
        <_>
          <internalNodes>
            0 -1 260 -7.8175310045480728e-03</internalNodes>
          <leafValues>
            4.0373584628105164e-01 -3.3330944180488586e-01</leafValues></_>
        <_>
          <internalNodes>
            0 -1 7 5.3546022623777390e-02</internalNodes>
          <leafValues>
            -2.1557454764842987e-01 5.3053033351898193e-01</leafValues></_>
        <_>
          <internalNodes>
            0 -1 266 -4.9324195832014084e-02</internalNodes>
          <leafValues>
            -8.1207108497619629e-01 1.1115894466638565e-01</leafValues></_>
        <_>
          <internalNodes>
            0 -1 162 5.9304445981979370e-02</internalNodes>
          <leafValues>
            1.4453101158142090e-01 -7.1940648555755615e-01</leafValues></_>
        <_>
          <internalNodes>
            0 -1 191 5.2714320190716535e-05</internalNodes>
          <leafValues>
            -3.8801777362823486e-01 2.1941955387592316e-01</leafValues></_>
        <_>
          <internalNodes>
            0 -1 341 -4.2066931724548340e-02</internalNodes>
          <leafValues>
            4.6957224607467651e-01 -1.9152902066707611e-01</leafValues></_>
        <_>
          <internalNodes>
            0 -1 22 -3.8885537534952164e-02</internalNodes>
          <leafValues>
            7.3215800523757935e-01 -1.0058446973562241e-01</leafValues></_>
        <_>
          <internalNodes>
            0 -1 283 1.8607699312269688e-03</internalNodes>
          <leafValues>
            -1.8773955106735229e-01 4.7602766752243042e-01</leafValues></_>
        <_>
          <internalNodes>
            0 -1 350 -2.4365312419831753e-03</internalNodes>
          <leafValues>
            2.3193654417991638e-01 -3.8183191418647766e-01</leafValues></_>
        <_>
          <internalNodes>
            0 -1 347 3.3226273953914642e-02</internalNodes>
          <leafValues>
            -1.3782376050949097e-01 6.1855673789978027e-01</leafValues></_>
        <_>
          <internalNodes>
            0 -1 156 -1.5813622158020735e-03</internalNodes>
          <leafValues>
            -7.0305836200714111e-01 1.3254462182521820e-01</leafValues></_>
        <_>
          <internalNodes>
            0 -1 168 -2.2149211727082729e-03</internalNodes>
          <leafValues>
            3.3682373166084290e-01 -2.3339289426803589e-01</leafValues></_>
        <_>
          <internalNodes>
            0 -1 158 -1.6559496521949768e-02</internalNodes>
          <leafValues>
            3.3674222230911255e-01 -2.4646645784378052e-01</leafValues></_>
        <_>
          <internalNodes>
            0 -1 27 9.9267154932022095e-02</internalNodes>
          <leafValues>
            -1.2940388917922974e-01 6.2097686529159546e-01</leafValues></_>
        <_>
          <internalNodes>
            0 -1 153 6.2278830446302891e-03</internalNodes>
          <leafValues>
            -1.4549064636230469e-01 5.4367345571517944e-01</leafValues></_>
        <_>
          <internalNodes>
            0 -1 277 6.5187267027795315e-03</internalNodes>
          <leafValues>
            -2.3901475965976715e-01 3.4830674529075623e-01</leafValues></_>
        <_>
          <internalNodes>
            0 -1 53 -2.1019777283072472e-02</internalNodes>
          <leafValues>
            7.6944875717163086e-01 -1.1569002270698547e-01</leafValues></_></weakClassifiers></_>
    <!-- stage 3 -->
    <_>
      <maxWeakCount>18</maxWeakCount>
      <stageThreshold>-7.2565871477127075e-01</stageThreshold>
      <weakClassifiers>
        <_>
          <internalNodes>
            0 -1 339 -8.6245508864521980e-03</internalNodes>
          <leafValues>
            6.3664120435714722e-01 -7.3684208095073700e-02</leafValues></_>
        <_>
          <internalNodes>
            0 -1 23 5.4408766329288483e-02</internalNodes>
          <leafValues>
            -3.7817737460136414e-01 3.7476429343223572e-01</leafValues></_>
        <_>
          <internalNodes>
            0 -1 256 2.5048349052667618e-02</internalNodes>
          <leafValues>
            -3.2808011770248413e-01 4.2592817544937134e-01</leafValues></_>
        <_>
          <internalNodes>
            0 -1 10 -1.1598714627325535e-02</internalNodes>
          <leafValues>
            4.2171093821525574e-01 -2.9878968000411987e-01</leafValues></_>
        <_>
          <internalNodes>
            0 -1 94 -5.4305247962474823e-02</internalNodes>
          <leafValues>
            -4.8326432704925537e-01 2.5855645537376404e-01</leafValues></_>
        <_>
          <internalNodes>
            0 -1 42 -7.7265143394470215e-02</internalNodes>
          <leafValues>
            6.9015383720397949e-01 -1.2595856189727783e-01</leafValues></_>
        <_>
          <internalNodes>
            0 -1 85 1.9338617566972971e-03</internalNodes>
          <leafValues>
            -2.8648236393928528e-01 3.6434873938560486e-01</leafValues></_>
        <_>
          <internalNodes>
            0 -1 342 -5.8538310229778290e-02</internalNodes>
          <leafValues>
            4.5929062366485596e-01 -1.5532633662223816e-01</leafValues></_>
        <_>
          <internalNodes>
            0 -1 310 1.4444186352193356e-02</internalNodes>
          <leafValues>
            -2.4797070026397705e-01 3.8296824693679810e-01</leafValues></_>
        <_>
          <internalNodes>
            0 -1 34 -9.3541305977851152e-04</internalNodes>
          <leafValues>
            -4.1818407177925110e-01 1.7449580132961273e-01</leafValues></_>
        <_>
          <internalNodes>
            0 -1 254 7.2284642374143004e-04</internalNodes>
          <leafValues>
            1.1046557873487473e-01 -7.2415113449096680e-01</leafValues></_>
        <_>
          <internalNodes>
            0 -1 229 -2.6188049465417862e-02</internalNodes>
          <leafValues>
            3.4345817565917969e-01 -2.2487249970436096e-01</leafValues></_>
        <_>
          <internalNodes>
            0 -1 205 2.5053173303604126e-02</internalNodes>
          <leafValues>
            -1.7463056743144989e-01 4.7863161563873291e-01</leafValues></_>
        <_>
          <internalNodes>
            0 -1 127 2.0752836018800735e-02</internalNodes>
          <leafValues>
            -1.3764882087707520e-01 5.1533252000808716e-01</leafValues></_>
        <_>
          <internalNodes>
            0 -1 386 -1.5438727568835020e-03</internalNodes>
          <leafValues>
            -9.3220412731170654e-01 7.7876843512058258e-02</leafValues></_>
        <_>
          <internalNodes>
            0 -1 293 -4.1397484019398689e-03</internalNodes>
          <leafValues>
            2.7538794279098511e-01 -2.7959641814231873e-01</leafValues></_>
        <_>
          <internalNodes>
            0 -1 250 3.1022415496408939e-03</internalNodes>
          <leafValues>
            1.0113808512687683e-01 -9.4955503940582275e-01</leafValues></_>
        <_>
          <internalNodes>
            0 -1 91 -1.3620555400848389e-02</internalNodes>
          <leafValues>
            -1.4181318879127502e-01 6.2119042873382568e-01</leafValues></_></weakClassifiers></_>
    <!-- stage 4 -->
    <_>
      <maxWeakCount>23</maxWeakCount>
      <stageThreshold>-7.5210464000701904e-01</stageThreshold>
      <weakClassifiers>
        <_>
          <internalNodes>
            0 -1 11 6.7684203386306763e-03</internalNodes>
          <leafValues>
            -1.4814814925193787e-01 6.0487145185470581e-01</leafValues></_>
        <_>
          <internalNodes>
            0 -1 371 -2.9774140566587448e-03</internalNodes>
          <leafValues>
            4.5102316141128540e-01 -2.0471318066120148e-01</leafValues></_>
        <_>
          <internalNodes>
            0 -1 130 5.9495000168681145e-03</internalNodes>
          <leafValues>
            -2.8136470913887024e-01 2.8635966777801514e-01</leafValues></_>
        <_>
          <internalNodes>
            0 -1 340 1.7242223024368286e-02</internalNodes>
          <leafValues>
            -1.9305284321308136e-01 3.9172518253326416e-01</leafValues></_>
        <_>
          <internalNodes>
            0 -1 305 -8.1051532179117203e-03</internalNodes>
          <leafValues>
            4.5266652107238770e-01 -1.8922521173954010e-01</leafValues></_>
        <_>
          <internalNodes>
            0 -1 334 1.4707840979099274e-02</internalNodes>
          <leafValues>
            -1.6907435655593872e-01 4.6946704387664795e-01</leafValues></_>
        <_>
          <internalNodes>
            0 -1 210 -8.1644253805279732e-04</internalNodes>
          <leafValues>
            -7.2052586078643799e-01 1.2400680780410767e-01</leafValues></_>
        <_>
          <internalNodes>
            0 -1 362 -4.8989048227667809e-03</internalNodes>
          <leafValues>
            -7.2213751077651978e-01 9.2722557485103607e-02</leafValues></_>
        <_>
          <internalNodes>
            0 -1 151 3.5536373034119606e-03</internalNodes>
          <leafValues>
            -1.9971811771392822e-01 3.8612973690032959e-01</leafValues></_>
        <_>
          <internalNodes>
            0 -1 114 4.6301158145070076e-03</internalNodes>
          <leafValues>
            -1.7236323654651642e-01 4.2481628060340881e-01</leafValues></_>
        <_>
          <internalNodes>
            0 -1 19 -6.6510379314422607e-02</internalNodes>
          <leafValues>
            5.5204999446868896e-01 -1.2373720109462738e-01</leafValues></_>
        <_>
          <internalNodes>
            0 -1 37 2.9950835742056370e-03</internalNodes>
          <leafValues>
            -1.6295368969440460e-01 4.3938136100769043e-01</leafValues></_>
        <_>
          <internalNodes>
            0 -1 36 -2.1742901299148798e-03</internalNodes>
          <leafValues>
            -8.2503187656402588e-01 1.1338088661432266e-01</leafValues></_>
        <_>
          <internalNodes>
            0 -1 291 -3.2213039696216583e-02</internalNodes>
          <leafValues>
            4.9353316426277161e-01 -1.5911194682121277e-01</leafValues></_>
        <_>
          <internalNodes>
            0 -1 190 -1.5166008379310369e-03</internalNodes>
          <leafValues>
            -7.7242386341094971e-01 9.9660709500312805e-02</leafValues></_>
        <_>
          <internalNodes>
            0 -1 294 2.7056125923991203e-02</internalNodes>
          <leafValues>
            -1.3904656469821930e-01 5.9085935354232788e-01</leafValues></_>
        <_>
          <internalNodes>
            0 -1 80 -2.1689301356673241e-03</internalNodes>
          <leafValues>
            -6.4058536291122437e-01 1.1888106167316437e-01</leafValues></_>
        <_>
          <internalNodes>
            0 -1 264 5.0337228458374739e-04</internalNodes>
          <leafValues>
            -3.2267546653747559e-01 2.7510297298431396e-01</leafValues></_>
        <_>
          <internalNodes>
            0 -1 101 3.9491811767220497e-03</internalNodes>
          <leafValues>
            1.5031439065933228e-01 -5.2096551656723022e-01</leafValues></_>
        <_>
          <internalNodes>
            0 -1 115 -9.6028763800859451e-03</internalNodes>
          <leafValues>
            4.7410050034523010e-01 -1.6710886359214783e-01</leafValues></_>
        <_>
          <internalNodes>
            0 -1 107 1.0518934577703476e-03</internalNodes>
          <leafValues>
            -2.9540699720382690e-01 2.5878348946571350e-01</leafValues></_>
        <_>
          <internalNodes>
            0 -1 129 -2.2090142965316772e-01</internalNodes>
          <leafValues>
            -6.2850695848464966e-01 1.1247710883617401e-01</leafValues></_>
        <_>
          <internalNodes>
            0 -1 268 -4.9527855589985847e-03</internalNodes>
          <leafValues>
            4.5931032299995422e-01 -1.5620319545269012e-01</leafValues></_></weakClassifiers></_>
    <!-- stage 5 -->
    <_>
      <maxWeakCount>28</maxWeakCount>
      <stageThreshold>-7.2739601135253906e-01</stageThreshold>
      <weakClassifiers>
        <_>
          <internalNodes>
            0 -1 60 9.7609860822558403e-03</internalNodes>
          <leafValues>
            -1.5254236757755280e-01 4.9253731966018677e-01</leafValues></_>
        <_>
          <internalNodes>
            0 -1 6 1.4549806714057922e-02</internalNodes>
          <leafValues>
            -1.7832876741886139e-01 5.3388160467147827e-01</leafValues></_>
        <_>
          <internalNodes>
            0 -1 262 -7.1333879604935646e-03</internalNodes>
          <leafValues>
            4.2060878872871399e-01 -1.7140196263790131e-01</leafValues></_>
        <_>
          <internalNodes>
            0 -1 209 -4.0777079761028290e-02</internalNodes>
          <leafValues>
            2.8596782684326172e-01 -2.4497056007385254e-01</leafValues></_>
        <_>
          <internalNodes>
            0 -1 28 -1.4982640743255615e-01</internalNodes>
          <leafValues>
            7.9906612634658813e-01 -8.3369240164756775e-02</leafValues></_>
        <_>
          <internalNodes>
            0 -1 18 1.1087042093276978e-01</internalNodes>
          <leafValues>
            -1.8546064198017120e-01 4.0993735194206238e-01</leafValues></_>
        <_>
          <internalNodes>
            0 -1 298 -2.1412624046206474e-03</internalNodes>
          <leafValues>
            1.9228856265544891e-01 -4.0779542922973633e-01</leafValues></_>
        <_>
          <internalNodes>
            0 -1 211 6.8337079137563705e-03</internalNodes>
          <leafValues>
            -1.7290848493576050e-01 3.7500709295272827e-01</leafValues></_>
        <_>
          <internalNodes>
            0 -1 214 -1.2193529866635799e-02</internalNodes>
          <leafValues>
            6.1401259899139404e-01 -1.2021997570991516e-01</leafValues></_>
        <_>
          <internalNodes>
            0 -1 96 4.8069298267364502e-02</internalNodes>
          <leafValues>
            -8.4826678037643433e-02 6.9933903217315674e-01</leafValues></_>
        <_>
          <internalNodes>
            0 -1 378 -3.2046451233327389e-03</internalNodes>
          <leafValues>
            4.4500714540481567e-01 -1.3001792132854462e-01</leafValues></_>
        <_>
          <internalNodes>
            0 -1 259 -1.3097855262458324e-03</internalNodes>
          <leafValues>
            -8.5081970691680908e-01 7.8252092003822327e-02</leafValues></_>
        <_>
          <internalNodes>
            0 -1 316 -4.8058922402560711e-04</internalNodes>
          <leafValues>
            2.1079447865486145e-01 -2.8564807772636414e-01</leafValues></_>
        <_>
          <internalNodes>
            0 -1 202 3.3388719893991947e-03</internalNodes>
          <leafValues>
            -2.2770532965660095e-01 2.8641676902770996e-01</leafValues></_>
        <_>
          <internalNodes>
            0 -1 181 -2.1463120356202126e-03</internalNodes>
          <leafValues>
            4.6211874485015869e-01 -1.4750167727470398e-01</leafValues></_>
        <_>
          <internalNodes>
            0 -1 173 1.1563029838725924e-03</internalNodes>
          <leafValues>
            -2.8599277138710022e-01 2.5285309553146362e-01</leafValues></_>
        <_>
          <internalNodes>
            0 -1 73 9.1932997107505798e-02</internalNodes>
          <leafValues>
            7.8346394002437592e-02 -6.8164247274398804e-01</leafValues></_>
        <_>
          <internalNodes>
            0 -1 110 9.3922287225723267e-02</internalNodes>
          <leafValues>
            5.9239953756332397e-02 -8.8781428337097168e-01</leafValues></_>
        <_>
          <internalNodes>
            0 -1 51 -6.0579245910048485e-03</internalNodes>
          <leafValues>
            4.4311216473579407e-01 -1.4867566525936127e-01</leafValues></_>
        <_>
          <internalNodes>
            0 -1 87 3.6298728082329035e-03</internalNodes>
          <leafValues>
            -2.2458125650882721e-01 3.0061408877372742e-01</leafValues></_>
        <_>
          <internalNodes>
            0 -1 78 1.3688073959201574e-03</internalNodes>
          <leafValues>
            1.2646538019180298e-01 -4.6880373358726501e-01</leafValues></_>
        <_>
          <internalNodes>
            0 -1 198 8.8919159024953842e-03</internalNodes>
          <leafValues>
            -1.9032917916774750e-01 2.9212772846221924e-01</leafValues></_>
        <_>
          <internalNodes>
            0 -1 200 -4.5025972649455070e-03</internalNodes>
          <leafValues>
            3.6503702402114868e-01 -1.5231557190418243e-01</leafValues></_>
        <_>
          <internalNodes>
            0 -1 308 -9.2446068301796913e-03</internalNodes>
          <leafValues>
            -8.4974545240402222e-01 7.5046084821224213e-02</leafValues></_>
        <_>
          <internalNodes>
            0 -1 237 2.4554985575377941e-03</internalNodes>
          <leafValues>
            8.5978724062442780e-02 -5.3970539569854736e-01</leafValues></_>
        <_>
          <internalNodes>
            0 -1 183 1.3154379557818174e-03</internalNodes>
          <leafValues>
            -2.5740399956703186e-01 2.2905854880809784e-01</leafValues></_>
        <_>
          <internalNodes>
            0 -1 133 1.5151305124163628e-03</internalNodes>
          <leafValues>
            -2.7479276061058044e-01 2.2454133629798889e-01</leafValues></_>
        <_>
          <internalNodes>
            0 -1 126 5.7278160005807877e-02</internalNodes>
          <leafValues>
            1.0328398644924164e-01 -5.4444646835327148e-01</leafValues></_></weakClassifiers></_>
    <!-- stage 6 -->
    <_>
      <maxWeakCount>23</maxWeakCount>
      <stageThreshold>-5.2493089437484741e-01</stageThreshold>
      <weakClassifiers>
        <_>
          <internalNodes>
            0 -1 338 -3.0773617327213287e-03</internalNodes>
          <leafValues>
            5.4353564977645874e-01 -7.9229123890399933e-02</leafValues></_>
        <_>
          <internalNodes>
            0 -1 121 -3.0049219727516174e-02</internalNodes>
          <leafValues>
            5.1756250858306885e-01 -1.7485374212265015e-01</leafValues></_>
        <_>
          <internalNodes>
            0 -1 238 -9.7579909488558769e-03</internalNodes>
          <leafValues>
            1.8715271353721619e-01 -4.1908347606658936e-01</leafValues></_>
        <_>
          <internalNodes>
            0 -1 174 -3.2626786269247532e-03</internalNodes>
          <leafValues>
            2.0520229637622833e-01 -3.9066979289054871e-01</leafValues></_>
        <_>
          <internalNodes>
            0 -1 222 -2.4409273173660040e-03</internalNodes>
          <leafValues>
            -5.9108459949493408e-01 1.0290792584419250e-01</leafValues></_>
        <_>
          <internalNodes>
            0 -1 71 1.9465035293251276e-03</internalNodes>
          <leafValues>
            -2.4101756513118744e-01 3.1401038169860840e-01</leafValues></_>
        <_>
          <internalNodes>
            0 -1 259 1.2615590821951628e-03</internalNodes>
          <leafValues>
            1.2081237882375717e-01 -9.1002726554870605e-01</leafValues></_>
        <_>
          <internalNodes>
            0 -1 381 -2.0593462977558374e-03</internalNodes>
          <leafValues>
            -6.7940133810043335e-01 7.5623452663421631e-02</leafValues></_>
        <_>
          <internalNodes>
            0 -1 26 1.3236926496028900e-01</internalNodes>
          <leafValues>
            5.2372135221958160e-02 -8.5625785589218140e-01</leafValues></_>
        <_>
          <internalNodes>
            0 -1 373 -3.4481422044336796e-03</internalNodes>
          <leafValues>
            -6.8035989999771118e-01 3.0194230377674103e-02</leafValues></_>
        <_>
          <internalNodes>
            0 -1 343 9.4718299806118011e-03</internalNodes>
          <leafValues>
            -3.3615750074386597e-01 1.9070525467395782e-01</leafValues></_>
        <_>
          <internalNodes>
            0 -1 204 -1.1660619825124741e-01</internalNodes>
          <leafValues>
            -6.0766011476516724e-01 1.0067255049943924e-01</leafValues></_>
        <_>
          <internalNodes>
            0 -1 311 1.8583084456622601e-03</internalNodes>
          <leafValues>
            -1.4922761917114258e-01 4.3473410606384277e-01</leafValues></_>
        <_>
          <internalNodes>
            0 -1 336 -1.7540971748530865e-04</internalNodes>
          <leafValues>
            2.4582859873771667e-01 -2.6909270882606506e-01</leafValues></_>
        <_>
          <internalNodes>
            0 -1 189 1.1057594092562795e-03</internalNodes>
          <leafValues>
            1.1947963386774063e-01 -6.4152020215988159e-01</leafValues></_>
        <_>
          <internalNodes>
            0 -1 134 -8.4177426993846893e-02</internalNodes>
          <leafValues>
            -7.5538837909698486e-01 6.8752489984035492e-02</leafValues></_>
        <_>
          <internalNodes>
            0 -1 245 2.1876767277717590e-03</internalNodes>
          <leafValues>
            -1.7740237712860107e-01 4.0731257200241089e-01</leafValues></_>
        <_>
          <internalNodes>
            0 -1 78 -3.6229933612048626e-03</internalNodes>
          <leafValues>
            -8.5536313056945801e-01 7.0603452622890472e-02</leafValues></_>
        <_>
          <internalNodes>
            0 -1 306 6.2762352172285318e-04</internalNodes>
          <leafValues>
            8.4967218339443207e-02 -6.3959592580795288e-01</leafValues></_>
        <_>
          <internalNodes>
            0 -1 383 3.8619455881416798e-04</internalNodes>
          <leafValues>
            1.2132886052131653e-01 -4.7316560149192810e-01</leafValues></_>
        <_>
          <internalNodes>
            0 -1 157 -1.5845108777284622e-02</internalNodes>
          <leafValues>
            -8.5057866573333740e-01 6.8273000419139862e-02</leafValues></_>
        <_>
          <internalNodes>
            0 -1 84 -5.6229736655950546e-03</internalNodes>
          <leafValues>
            -8.6046588420867920e-01 5.6608229875564575e-02</leafValues></_>
        <_>
          <internalNodes>
            0 -1 225 1.6388993244618177e-03</internalNodes>
          <leafValues>
            -1.9181895256042480e-01 3.3382833003997803e-01</leafValues></_></weakClassifiers></_>
    <!-- stage 7 -->
    <_>
      <maxWeakCount>30</maxWeakCount>
      <stageThreshold>-6.6042870283126831e-01</stageThreshold>
      <weakClassifiers>
        <_>
          <internalNodes>
            0 -1 8 6.9447513669729233e-03</internalNodes>
          <leafValues>
            -2.7932960540056229e-02 5.6686043739318848e-01</leafValues></_>
        <_>
          <internalNodes>
            0 -1 323 9.3994839116930962e-03</internalNodes>
          <leafValues>
            -3.7243252992630005e-01 2.2672255337238312e-01</leafValues></_>
        <_>
          <internalNodes>
            0 -1 192 1.2728763744235039e-02</internalNodes>
          <leafValues>
            1.9573749601840973e-01 -4.0098938345909119e-01</leafValues></_>
        <_>
          <internalNodes>
            0 -1 273 -1.1143535375595093e-02</internalNodes>
          <leafValues>
            5.1272577047348022e-01 -1.5162356197834015e-01</leafValues></_>
        <_>
          <internalNodes>
            0 -1 52 -1.7659112811088562e-02</internalNodes>
          <leafValues>
            6.7437201738357544e-01 -1.1604826897382736e-01</leafValues></_>
        <_>
          <internalNodes>
            0 -1 3 -4.2186737991869450e-03</internalNodes>
          <leafValues>
            -1.1593924462795258e-01 6.2513810396194458e-01</leafValues></_>
        <_>
          <internalNodes>
            0 -1 25 7.2195734828710556e-03</internalNodes>
          <leafValues>
            -2.2489014267921448e-01 2.9450961947441101e-01</leafValues></_>
        <_>
          <internalNodes>
            0 -1 253 -1.4374449383467436e-03</internalNodes>
          <leafValues>
            -8.5521590709686279e-01 5.7468317449092865e-02</leafValues></_>
        <_>
          <internalNodes>
            0 -1 215 1.4614747837185860e-02</internalNodes>
          <leafValues>
            -1.3625775277614594e-01 4.4880485534667969e-01</leafValues></_>
        <_>
          <internalNodes>
            0 -1 15 7.1855559945106506e-02</internalNodes>
          <leafValues>
            -1.7842684686183929e-01 3.2356610894203186e-01</leafValues></_>
        <_>
          <internalNodes>
            0 -1 299 -2.7006510645151138e-03</internalNodes>
          <leafValues>
            4.1989880800247192e-01 -1.3554890453815460e-01</leafValues></_>
        <_>
          <internalNodes>
            0 -1 227 -6.3384763896465302e-02</internalNodes>
          <leafValues>
            -4.9662294983863831e-01 1.0305278748273849e-01</leafValues></_>
        <_>
          <internalNodes>
            0 -1 296 -1.0362863540649414e-02</internalNodes>
          <leafValues>
            5.0198268890380859e-01 -1.0518059134483337e-01</leafValues></_>
        <_>
          <internalNodes>
            0 -1 187 8.4314964711666107e-02</internalNodes>
          <leafValues>
            -1.0486378520727158e-01 5.0861257314682007e-01</leafValues></_>
        <_>
          <internalNodes>
            0 -1 285 -4.4460545177571476e-04</internalNodes>
          <leafValues>
            2.4579495191574097e-01 -2.8919211030006409e-01</leafValues></_>
        <_>
          <internalNodes>
            0 -1 335 4.0413099341094494e-03</internalNodes>
          <leafValues>
            1.1729607731103897e-01 -5.4380691051483154e-01</leafValues></_>
        <_>
          <internalNodes>
            0 -1 282 1.0286623146384954e-03</internalNodes>
          <leafValues>
            -1.6343879699707031e-01 3.6621838808059692e-01</leafValues></_>
        <_>
          <internalNodes>
            0 -1 196 3.6979115102440119e-03</internalNodes>
          <leafValues>
            7.6081551611423492e-02 -7.6085042953491211e-01</leafValues></_>
        <_>
          <internalNodes>
            0 -1 46 3.4511364996433258e-02</internalNodes>
          <leafValues>
            -9.5535486936569214e-02 6.7670112848281860e-01</leafValues></_>
        <_>
          <internalNodes>
            0 -1 374 2.2065066732466221e-03</internalNodes>
          <leafValues>
            1.0591452568769455e-01 -5.6949722766876221e-01</leafValues></_>
        <_>
          <internalNodes>
            0 -1 367 -9.2883280012756586e-04</internalNodes>
          <leafValues>
            2.4445419013500214e-01 -2.3267506062984467e-01</leafValues></_>
        <_>
          <internalNodes>
            0 -1 349 1.5699114650487900e-02</internalNodes>
          <leafValues>
            -1.3074313104152679e-01 4.8364561796188354e-01</leafValues></_>
        <_>
          <internalNodes>
            0 -1 348 -5.9163784608244896e-03</internalNodes>
          <leafValues>
            3.5886812210083008e-01 -1.6266807913780212e-01</leafValues></_>
        <_>
          <internalNodes>
            0 -1 356 1.2691251467913389e-03</internalNodes>
          <leafValues>
            7.9565338790416718e-02 -7.4097299575805664e-01</leafValues></_>
        <_>
          <internalNodes>
            0 -1 263 2.1090141963213682e-03</internalNodes>
          <leafValues>
            -2.6403707265853882e-01 2.2614324092864990e-01</leafValues></_>
        <_>
          <internalNodes>
            0 -1 364 -6.5601046662777662e-04</internalNodes>
          <leafValues>
            3.4810203313827515e-01 -1.6652466356754303e-01</leafValues></_>
        <_>
          <internalNodes>
            0 -1 103 -1.3571619056165218e-03</internalNodes>
          <leafValues>
            -7.2799384593963623e-01 8.8369369506835938e-02</leafValues></_>
        <_>
          <internalNodes>
            0 -1 186 -9.9335880950093269e-03</internalNodes>
          <leafValues>
            -1. 4.4823501259088516e-02</leafValues></_>
        <_>
          <internalNodes>
            0 -1 33 -5.4276799783110619e-03</internalNodes>
          <leafValues>
            -4.5013165473937988e-01 1.1814454197883606e-01</leafValues></_>
        <_>
          <internalNodes>
            0 -1 352 -7.0647350512444973e-03</internalNodes>
          <leafValues>
            -8.0322927236557007e-01 6.3789807260036469e-02</leafValues></_></weakClassifiers></_>
    <!-- stage 8 -->
    <_>
      <maxWeakCount>30</maxWeakCount>
      <stageThreshold>-5.7073217630386353e-01</stageThreshold>
      <weakClassifiers>
        <_>
          <internalNodes>
            0 -1 261 -4.6370429918169975e-03</internalNodes>
          <leafValues>
            4.9817296862602234e-01 -8.4158413112163544e-02</leafValues></_>
        <_>
          <internalNodes>
            0 -1 230 2.6380209252238274e-02</internalNodes>
          <leafValues>
            -2.3588337004184723e-01 2.8913882374763489e-01</leafValues></_>
        <_>
          <internalNodes>
            0 -1 59 -1.7864866182208061e-02</internalNodes>
          <leafValues>
            -5.1291805505752563e-01 1.4407828450202942e-01</leafValues></_>
        <_>
          <internalNodes>
            0 -1 21 1.5749063342809677e-02</internalNodes>
          <leafValues>
            -1.7148354649543762e-01 4.1416054964065552e-01</leafValues></_>
        <_>
          <internalNodes>
            0 -1 279 6.7624845542013645e-04</internalNodes>
          <leafValues>
            -2.2746379673480988e-01 3.1472361087799072e-01</leafValues></_>
        <_>
          <internalNodes>
            0 -1 228 -3.0629169195890427e-02</internalNodes>
          <leafValues>
            2.7324086427688599e-01 -2.3256367444992065e-01</leafValues></_>
        <_>
          <internalNodes>
            0 -1 20 -1.3299058191478252e-02</internalNodes>
          <leafValues>
            4.9823972582817078e-01 -1.3226294517517090e-01</leafValues></_>
        <_>
          <internalNodes>
            0 -1 57 8.4142396226525307e-03</internalNodes>
          <leafValues>
            -2.3090708255767822e-01 2.8555330634117126e-01</leafValues></_>
        <_>
          <internalNodes>
            0 -1 104 4.8115784302353859e-03</internalNodes>
          <leafValues>
            -1.9353824853897095e-01 2.9252222180366516e-01</leafValues></_>
        <_>
          <internalNodes>
            0 -1 31 6.5055884420871735e-02</internalNodes>
          <leafValues>
            9.9147573113441467e-02 -6.1989933252334595e-01</leafValues></_>
        <_>
          <internalNodes>
            0 -1 81 -2.1641548722982407e-02</internalNodes>
          <leafValues>
            4.7335216403007507e-01 -1.3461732864379883e-01</leafValues></_>
        <_>
          <internalNodes>
            0 -1 102 3.9136791601777077e-03</internalNodes>
          <leafValues>
            -1.3277046382427216e-01 4.8536500334739685e-01</leafValues></_>
        <_>
          <internalNodes>
            0 -1 135 -1.1343650985509157e-03</internalNodes>
          <leafValues>
            1.5369233489036560e-01 -4.0662002563476562e-01</leafValues></_>
        <_>
          <internalNodes>
            0 -1 185 8.9649818837642670e-03</internalNodes>
          <leafValues>
            -1.0348603129386902e-01 6.1696356534957886e-01</leafValues></_>
        <_>
          <internalNodes>
            0 -1 201 -1.8087651580572128e-02</internalNodes>
          <leafValues>
            4.0252804756164551e-01 -1.3698899745941162e-01</leafValues></_>
        <_>
          <internalNodes>
            0 -1 309 -2.2880357573740184e-04</internalNodes>
          <leafValues>
            -2.5973594188690186e-01 2.2871156036853790e-01</leafValues></_>
        <_>
          <internalNodes>
            0 -1 328 -1.3025432825088501e-02</internalNodes>
          <leafValues>
            -8.5775756835937500e-01 7.2315387427806854e-02</leafValues></_>
        <_>
          <internalNodes>
            0 -1 93 1.1595018208026886e-02</internalNodes>
          <leafValues>
            7.4579991400241852e-02 -6.6179645061492920e-01</leafValues></_>
        <_>
          <internalNodes>
            0 -1 213 -2.8726480901241302e-02</internalNodes>
          <leafValues>
            1.6475138068199158e-01 -3.1199282407760620e-01</leafValues></_>
        <_>
          <internalNodes>
            0 -1 72 -3.9787143468856812e-02</internalNodes>
          <leafValues>
            4.3185320496559143e-01 -1.1912319064140320e-01</leafValues></_>
        <_>
          <internalNodes>
            0 -1 369 9.1255502775311470e-04</internalNodes>
          <leafValues>
            -1.6768835484981537e-01 3.0208620429039001e-01</leafValues></_>
        <_>
          <internalNodes>
            0 -1 325 1.6751553630456328e-03</internalNodes>
          <leafValues>
            -1.5829811990261078e-01 3.2869783043861389e-01</leafValues></_>
        <_>
          <internalNodes>
            0 -1 365 -2.7358103543519974e-03</internalNodes>
          <leafValues>
            -6.0255306959152222e-01 9.1932967305183411e-02</leafValues></_>
        <_>
          <internalNodes>
            0 -1 303 -3.9620739407837391e-03</internalNodes>
          <leafValues>
            2.8321662545204163e-01 -1.9667252898216248e-01</leafValues></_>
        <_>
          <internalNodes>
            0 -1 281 3.0082862824201584e-02</internalNodes>
          <leafValues>
            9.8640203475952148e-02 -7.2085899114608765e-01</leafValues></_>
        <_>
          <internalNodes>
            0 -1 161 7.0025799795985222e-03</internalNodes>
          <leafValues>
            -1.6597944498062134e-01 3.9125502109527588e-01</leafValues></_>
        <_>
          <internalNodes>
            0 -1 58 1.5056918561458588e-01</internalNodes>
          <leafValues>
            1.0744981467723846e-01 -4.8828026652336121e-01</leafValues></_>
        <_>
          <internalNodes>
            0 -1 163 5.3944652900099754e-03</internalNodes>
          <leafValues>
            -1.2236867100000381e-01 4.8219612240791321e-01</leafValues></_>
        <_>
          <internalNodes>
            0 -1 120 1.4676204955321737e-05</internalNodes>
          <leafValues>
            -2.8606420755386353e-01 1.8533481657505035e-01</leafValues></_>
        <_>
          <internalNodes>
            0 -1 143 -1.1401668889448047e-03</internalNodes>
          <leafValues>
            3.0466061830520630e-01 -1.9932992756366730e-01</leafValues></_></weakClassifiers></_>
    <!-- stage 9 -->
    <_>
      <maxWeakCount>32</maxWeakCount>
      <stageThreshold>-6.4735436439514160e-01</stageThreshold>
      <weakClassifiers>
        <_>
          <internalNodes>
            0 -1 344 3.1132821459323168e-03</internalNodes>
          <leafValues>
            5.2910051308572292e-03 5.6534951925277710e-01</leafValues></_>
        <_>
          <internalNodes>
            0 -1 368 -3.9784319698810577e-02</internalNodes>
          <leafValues>
            5.2568435668945312e-01 -1.2356419861316681e-01</leafValues></_>
        <_>
          <internalNodes>
            0 -1 175 -3.6736942827701569e-02</internalNodes>
          <leafValues>
            2.4839170277118683e-01 -2.5265049934387207e-01</leafValues></_>
        <_>
          <internalNodes>
            0 -1 243 -3.9345319382846355e-03</internalNodes>
          <leafValues>
            2.8526705503463745e-01 -2.0353275537490845e-01</leafValues></_>
        <_>
          <internalNodes>
            0 -1 89 2.6897650212049484e-02</internalNodes>
          <leafValues>
            -9.9045388400554657e-02 5.8344006538391113e-01</leafValues></_>
        <_>
          <internalNodes>
            0 -1 82 -1.3621398806571960e-01</internalNodes>
          <leafValues>
            5.3773742914199829e-01 -9.4681784510612488e-02</leafValues></_>
        <_>
          <internalNodes>
            0 -1 160 4.3695159256458282e-02</internalNodes>
          <leafValues>
            1.0179543495178223e-01 -5.7563412189483643e-01</leafValues></_>
        <_>
          <internalNodes>
            0 -1 63 4.0230832993984222e-02</internalNodes>
          <leafValues>
            -2.0279312133789062e-01 3.3730664849281311e-01</leafValues></_>
        <_>
          <internalNodes>
            0 -1 112 6.2784464098513126e-03</internalNodes>
          <leafValues>
            -1.4227423071861267e-01 3.6925798654556274e-01</leafValues></_>
        <_>
          <internalNodes>
            0 -1 45 -6.2907398678362370e-03</internalNodes>
          <leafValues>
            -6.4567786455154419e-01 8.4358900785446167e-02</leafValues></_>
        <_>
          <internalNodes>
            0 -1 354 -1.3841773383319378e-02</internalNodes>
          <leafValues>
            5.6485641002655029e-01 -8.9188717305660248e-02</leafValues></_>
        <_>
          <internalNodes>
            0 -1 363 -3.7627858109772205e-03</internalNodes>
          <leafValues>
            -8.6776530742645264e-01 7.0973567664623260e-02</leafValues></_>
        <_>
          <internalNodes>
            0 -1 170 -6.1061279848217964e-04</internalNodes>
          <leafValues>
            -5.6689679622650146e-01 7.5985647737979889e-02</leafValues></_>
        <_>
          <internalNodes>
            0 -1 105 2.9990484472364187e-04</internalNodes>
          <leafValues>
            -2.8487417101860046e-01 1.8240523338317871e-01</leafValues></_>
        <_>
          <internalNodes>
            0 -1 176 -1.6534847021102905e-01</internalNodes>
          <leafValues>
            -7.8193444013595581e-01 5.3061127662658691e-02</leafValues></_>
        <_>
          <internalNodes>
            0 -1 199 -4.9978168681263924e-03</internalNodes>
          <leafValues>
            1.6955555975437164e-01 -3.0484277009963989e-01</leafValues></_>
        <_>
          <internalNodes>
            0 -1 272 -3.4842579625546932e-03</internalNodes>
          <leafValues>
            -8.3128839731216431e-01 6.2071241438388824e-02</leafValues></_>
        <_>
          <internalNodes>
            0 -1 248 -2.3203927557915449e-03</internalNodes>
          <leafValues>
            4.5266491174697876e-01 -1.2798485159873962e-01</leafValues></_>
        <_>
          <internalNodes>
            0 -1 223 4.7119809314608574e-03</internalNodes>
          <leafValues>
            -1.0313935577869415e-01 4.8223388195037842e-01</leafValues></_>
        <_>
          <internalNodes>
            0 -1 123 6.5645854920148849e-04</internalNodes>
          <leafValues>
            -1.8045115470886230e-01 2.7713593840599060e-01</leafValues></_>
        <_>
          <internalNodes>
            0 -1 30 2.1268058568239212e-02</internalNodes>
          <leafValues>
            -6.6166408360004425e-02 7.5621461868286133e-01</leafValues></_>
        <_>
          <internalNodes>
            0 -1 271 1.1170917423442006e-03</internalNodes>
          <leafValues>
            9.5675855875015259e-02 -6.0169416666030884e-01</leafValues></_>
        <_>
          <internalNodes>
            0 -1 207 -7.7484978828579187e-04</internalNodes>
          <leafValues>
            -6.3903057575225830e-01 7.3976248502731323e-02</leafValues></_>
        <_>
          <internalNodes>
            0 -1 346 4.5281806960701942e-03</internalNodes>
          <leafValues>
            5.8277972042560577e-02 -7.4024212360382080e-01</leafValues></_>
        <_>
          <internalNodes>
            0 -1 100 1.7680465243756771e-03</internalNodes>
          <leafValues>
            -1.8243321776390076e-01 2.8242489695549011e-01</leafValues></_>
        <_>
          <internalNodes>
            0 -1 148 8.6825422476977110e-04</internalNodes>
          <leafValues>
            -3.4549590945243835e-01 1.7756739258766174e-01</leafValues></_>
        <_>
          <internalNodes>
            0 -1 326 1.5885267406702042e-02</internalNodes>
          <leafValues>
            -7.2538025677204132e-02 8.1006294488906860e-01</leafValues></_>
        <_>
          <internalNodes>
            0 -1 360 -3.5315754939801991e-04</internalNodes>
          <leafValues>
            -3.6932951211929321e-01 1.6651087999343872e-01</leafValues></_>
        <_>
          <internalNodes>
            0 -1 380 -5.6778071448206902e-03</internalNodes>
          <leafValues>
            3.3422440290451050e-01 -1.7316776514053345e-01</leafValues></_>
        <_>
          <internalNodes>
            0 -1 141 -4.8284806311130524e-02</internalNodes>
          <leafValues>
            -8.1420183181762695e-01 7.4304401874542236e-02</leafValues></_>
        <_>
          <internalNodes>
            0 -1 321 1.7694212496280670e-02</internalNodes>
          <leafValues>
            5.2316516637802124e-02 -9.4872248172760010e-01</leafValues></_>
        <_>
          <internalNodes>
            0 -1 221 6.5462067723274231e-03</internalNodes>
          <leafValues>
            5.2257977426052094e-02 -7.5023126602172852e-01</leafValues></_></weakClassifiers></_>
    <!-- stage 10 -->
    <_>
      <maxWeakCount>31</maxWeakCount>
      <stageThreshold>-5.8900678157806396e-01</stageThreshold>
      <weakClassifiers>
        <_>
          <internalNodes>
            0 -1 337 -1.7947037704288960e-03</internalNodes>
          <leafValues>
            5.0982964038848877e-01 -3.0303031206130981e-02</leafValues></_>
        <_>
          <internalNodes>
            0 -1 240 2.9949808958917856e-03</internalNodes>
          <leafValues>
            -2.4012392759323120e-01 2.7757182717323303e-01</leafValues></_>
        <_>
          <internalNodes>
            0 -1 303 -4.7828573733568192e-03</internalNodes>
          <leafValues>
            3.3238288760185242e-01 -2.0762676000595093e-01</leafValues></_>
        <_>
          <internalNodes>
            0 -1 9 4.0689669549465179e-02</internalNodes>
          <leafValues>
            -1.3009141385555267e-01 4.3418231606483459e-01</leafValues></_>
        <_>
          <internalNodes>
            0 -1 98 8.2384236156940460e-03</internalNodes>
          <leafValues>
            -2.7099773287773132e-01 1.9528353214263916e-01</leafValues></_>
        <_>
          <internalNodes>
            0 -1 284 5.2100734319537878e-04</internalNodes>
          <leafValues>
            8.9901097118854523e-02 -5.9689188003540039e-01</leafValues></_>
        <_>
          <internalNodes>
            0 -1 139 6.9426465779542923e-03</internalNodes>
          <leafValues>
            -1.1489260941743851e-01 4.8650845885276794e-01</leafValues></_>
        <_>
          <internalNodes>
            0 -1 361 1.8510231748223305e-03</internalNodes>
          <leafValues>
            7.5079940259456635e-02 -6.8426257371902466e-01</leafValues></_>
        <_>
          <internalNodes>
            0 -1 290 1.5304957330226898e-01</internalNodes>
          <leafValues>
            -8.0280251801013947e-02 7.3790055513381958e-01</leafValues></_>
        <_>
          <internalNodes>
            0 -1 44 3.6089569330215454e-03</internalNodes>
          <leafValues>
            9.4664059579372406e-02 -6.4819735288619995e-01</leafValues></_>
        <_>
          <internalNodes>
            0 -1 138 -2.5222834199666977e-02</internalNodes>
          <leafValues>
            -6.8114274740219116e-01 7.3066212236881256e-02</leafValues></_>
        <_>
          <internalNodes>
            0 -1 41 1.0520478710532188e-02</internalNodes>
          <leafValues>
            -1.1523345112800598e-01 4.5349484682083130e-01</leafValues></_>
        <_>
          <internalNodes>
            0 -1 242 1.0732377413660288e-03</internalNodes>
          <leafValues>
            -1.0201911628246307e-01 5.0990498065948486e-01</leafValues></_>
        <_>
          <internalNodes>
            0 -1 288 -5.2939541637897491e-03</internalNodes>
          <leafValues>
            -8.6343705654144287e-01 6.2600970268249512e-02</leafValues></_>
        <_>
          <internalNodes>
            0 -1 150 -2.3387629538774490e-02</internalNodes>
          <leafValues>
            -5.3622627258300781e-01 8.7952882051467896e-02</leafValues></_>
        <_>
          <internalNodes>
            0 -1 332 -5.1085585728287697e-03</internalNodes>
          <leafValues>
            3.3627012372016907e-01 -1.5952120721340179e-01</leafValues></_>
        <_>
          <internalNodes>
            0 -1 49 -4.7572707990184426e-04</internalNodes>
          <leafValues>
            -3.2477647066116333e-01 1.7502030730247498e-01</leafValues></_>
        <_>
          <internalNodes>
            0 -1 219 -3.4794956445693970e-03</internalNodes>
          <leafValues>
            3.1651228666305542e-01 -1.6048850119113922e-01</leafValues></_>
        <_>
          <internalNodes>
            0 -1 382 -5.5269091390073299e-03</internalNodes>
          <leafValues>
            4.2808368802070618e-01 -1.1102100461721420e-01</leafValues></_>
        <_>
          <internalNodes>
            0 -1 312 8.3382829325273633e-04</internalNodes>
          <leafValues>
            1.3960123062133789e-01 -3.7957739830017090e-01</leafValues></_>
        <_>
          <internalNodes>
            0 -1 5 3.8374448195099831e-03</internalNodes>
          <leafValues>
            4.8744425177574158e-02 -8.7026947736740112e-01</leafValues></_>
        <_>
          <internalNodes>
            0 -1 169 -1.8848093459382653e-03</internalNodes>
          <leafValues>
            3.5950911045074463e-01 -1.4725968241691589e-01</leafValues></_>
        <_>
          <internalNodes>
            0 -1 241 1.3828508090227842e-03</internalNodes>
          <leafValues>
            6.7617826163768768e-02 -7.6337486505508423e-01</leafValues></_>
        <_>
          <internalNodes>
            0 -1 320 2.4264593957923353e-04</internalNodes>
          <leafValues>
            -1.6218630969524384e-01 3.0757811665534973e-01</leafValues></_>
        <_>
          <internalNodes>
            0 -1 357 3.4991123247891665e-03</internalNodes>
          <leafValues>
            -1.9434776902198792e-01 2.6390668749809265e-01</leafValues></_>
        <_>
          <internalNodes>
            0 -1 292 -2.4391956627368927e-02</internalNodes>
          <leafValues>
            -6.8462826311588287e-02 7.3948961496353149e-01</leafValues></_>
        <_>
          <internalNodes>
            0 -1 137 1.2870486825704575e-03</internalNodes>
          <leafValues>
            9.2722512781620026e-02 -6.1362558603286743e-01</leafValues></_>
        <_>
          <internalNodes>
            0 -1 333 1.2734690681099892e-03</internalNodes>
          <leafValues>
            9.4505414366722107e-02 -4.4470274448394775e-01</leafValues></_>
        <_>
          <internalNodes>
            0 -1 152 1.5324287815019488e-03</internalNodes>
          <leafValues>
            -1.4983756840229034e-01 3.1791436672210693e-01</leafValues></_>
        <_>
          <internalNodes>
            0 -1 142 -4.7840221668593585e-04</internalNodes>
          <leafValues>
            -3.9111617207527161e-01 1.2959578633308411e-01</leafValues></_>
        <_>
          <internalNodes>
            0 -1 124 2.6824178639799356e-03</internalNodes>
          <leafValues>
            -1.0490530729293823e-01 5.1175999641418457e-01</leafValues></_></weakClassifiers></_>
    <!-- stage 11 -->
    <_>
      <maxWeakCount>31</maxWeakCount>
      <stageThreshold>-6.0172867774963379e-01</stageThreshold>
      <weakClassifiers>
        <_>
          <internalNodes>
            0 -1 13 -1.4940449967980385e-02</internalNodes>
          <leafValues>
            4.8756217956542969e-01 -4.0380045771598816e-02</leafValues></_>
        <_>
          <internalNodes>
            0 -1 1 4.4832061976194382e-03</internalNodes>
          <leafValues>
            -1.0663475841283798e-01 6.3372915983200073e-01</leafValues></_>
        <_>
          <internalNodes>
            0 -1 62 2.0397352054715157e-02</internalNodes>
          <leafValues>
            -2.2118856012821198e-01 3.0308428406715393e-01</leafValues></_>
        <_>
          <internalNodes>
            0 -1 289 -1.0152540635317564e-03</internalNodes>
          <leafValues>
            2.2320492565631866e-01 -2.4973900616168976e-01</leafValues></_>
        <_>
          <internalNodes>
            0 -1 184 5.3734825924038887e-03</internalNodes>
          <leafValues>
            -1.1191669106483459e-01 5.2435702085494995e-01</leafValues></_>
        <_>
          <internalNodes>
            0 -1 220 -8.8335219770669937e-03</internalNodes>
          <leafValues>
            2.5132250785827637e-01 -2.0997026562690735e-01</leafValues></_>
        <_>
          <internalNodes>
            0 -1 164 2.2479392588138580e-02</internalNodes>
          <leafValues>
            9.0283378958702087e-02 -6.7500334978103638e-01</leafValues></_>
        <_>
          <internalNodes>
            0 -1 304 -3.8025178946554661e-03</internalNodes>
          <leafValues>
            -8.0946326255798340e-01 5.8510564267635345e-02</leafValues></_>
        <_>
          <internalNodes>
            0 -1 88 -4.7384053468704224e-03</internalNodes>
          <leafValues>
            -6.1205208301544189e-01 7.0524863898754120e-02</leafValues></_>
        <_>
          <internalNodes>
            0 -1 117 3.3203931525349617e-03</internalNodes>
          <leafValues>
            -2.0009636878967285e-01 2.7238109707832336e-01</leafValues></_>
        <_>
          <internalNodes>
            0 -1 194 1.0952028632164001e-01</internalNodes>
          <leafValues>
            8.7114609777927399e-02 -4.8279720544815063e-01</leafValues></_>
        <_>
          <internalNodes>
            0 -1 255 -5.0246186554431915e-02</internalNodes>
          <leafValues>
            -8.2648366689682007e-02 6.8248772621154785e-01</leafValues></_>
        <_>
          <internalNodes>
            0 -1 359 4.5662932097911835e-03</internalNodes>
          <leafValues>
            8.2439512014389038e-02 -7.0791798830032349e-01</leafValues></_>
        <_>
          <internalNodes>
            0 -1 286 2.0690709352493286e-02</internalNodes>
          <leafValues>
            -1.5494239330291748e-01 3.0537861585617065e-01</leafValues></_>
        <_>
          <internalNodes>
            0 -1 166 7.9028671607375145e-03</internalNodes>
          <leafValues>
            5.0218295305967331e-02 -9.3116950988769531e-01</leafValues></_>
        <_>
          <internalNodes>
            0 -1 270 5.0375210121273994e-03</internalNodes>
          <leafValues>
            -1.3424466550350189e-01 3.9317387342453003e-01</leafValues></_>
        <_>
          <internalNodes>
            0 -1 218 -2.6074742898344994e-02</internalNodes>
          <leafValues>
            8.6381942033767700e-02 -5.3662562370300293e-01</leafValues></_>
        <_>
          <internalNodes>
            0 -1 17 -2.1250270307064056e-02</internalNodes>
          <leafValues>
            7.5669628381729126e-01 -6.8469330668449402e-02</leafValues></_>
        <_>
          <internalNodes>
            0 -1 224 2.1641554776579142e-03</internalNodes>
          <leafValues>
            -1.2584090232849121e-01 3.6683350801467896e-01</leafValues></_>
        <_>
          <internalNodes>
            0 -1 32 1.5580093488097191e-02</internalNodes>
          <leafValues>
            -2.1057476103305817e-01 2.6134663820266724e-01</leafValues></_>
        <_>
          <internalNodes>
            0 -1 43 -1.3208056986331940e-01</internalNodes>
          <leafValues>
            7.6728981733322144e-01 -7.3279052972793579e-02</leafValues></_>
        <_>
          <internalNodes>
            0 -1 247 2.3085847496986389e-03</internalNodes>
          <leafValues>
            -1.0815944522619247e-01 4.0396311879158020e-01</leafValues></_>
        <_>
          <internalNodes>
            0 -1 246 -5.4135206155478954e-03</internalNodes>
          <leafValues>
            6.2868255376815796e-01 -8.4881626069545746e-02</leafValues></_>
        <_>
          <internalNodes>
            0 -1 275 2.1247381810098886e-03</internalNodes>
          <leafValues>
            7.6754495501518250e-02 -8.6310648918151855e-01</leafValues></_>
        <_>
          <internalNodes>
            0 -1 108 3.5655903816223145e-01</internalNodes>
          <leafValues>
            -8.2654483616352081e-02 7.5151920318603516e-01</leafValues></_>
        <_>
          <internalNodes>
            0 -1 300 4.5254309661686420e-03</internalNodes>
          <leafValues>
            9.6512168645858765e-02 -6.7997550964355469e-01</leafValues></_>
        <_>
          <internalNodes>
            0 -1 370 -9.9095739424228668e-03</internalNodes>
          <leafValues>
            2.2630739212036133e-01 -2.2503146529197693e-01</leafValues></_>
        <_>
          <internalNodes>
            0 -1 113 -5.1558263599872589e-02</internalNodes>
          <leafValues>
            -5.1717478036880493e-01 1.0454371571540833e-01</leafValues></_>
        <_>
          <internalNodes>
            0 -1 307 -1.7445275443606079e-04</internalNodes>
          <leafValues>
            2.1085393428802490e-01 -2.4381557106971741e-01</leafValues></_>
        <_>
          <internalNodes>
            0 -1 47 4.8674582503736019e-03</internalNodes>
          <leafValues>
            7.5509041547775269e-02 -6.3320463895797729e-01</leafValues></_>
        <_>
          <internalNodes>
            0 -1 203 -8.0783409066498280e-04</internalNodes>
          <leafValues>
            2.8033295273780823e-01 -1.8898627161979675e-01</leafValues></_></weakClassifiers></_>
    <!-- stage 12 -->
    <_>
      <maxWeakCount>34</maxWeakCount>
      <stageThreshold>-5.4032975435256958e-01</stageThreshold>
      <weakClassifiers>
        <_>
          <internalNodes>
            0 -1 317 -3.1844468321651220e-03</internalNodes>
          <leafValues>
            4.8427674174308777e-01 -2.3255813866853714e-02</leafValues></_>
        <_>
          <internalNodes>
            0 -1 125 -2.1188370883464813e-02</internalNodes>
          <leafValues>
            3.1651586294174194e-01 -1.8406742811203003e-01</leafValues></_>
        <_>
          <internalNodes>
            0 -1 234 -3.3079855144023895e-02</internalNodes>
          <leafValues>
            -5.8729052543640137e-01 9.2591352760791779e-02</leafValues></_>
        <_>
          <internalNodes>
            0 -1 54 6.4566237851977348e-03</internalNodes>
          <leafValues>
            -1.9851677119731903e-01 2.3875857889652252e-01</leafValues></_>
        <_>
          <internalNodes>
            0 -1 329 -2.1305459085851908e-03</internalNodes>
          <leafValues>
            3.1423375010490417e-01 -1.4490862190723419e-01</leafValues></_>
        <_>
          <internalNodes>
            0 -1 330 1.0349277406930923e-02</internalNodes>
          <leafValues>
            -1.0970384627580643e-01 6.8441343307495117e-01</leafValues></_>
        <_>
          <internalNodes>
            0 -1 384 8.9508877135813236e-04</internalNodes>
          <leafValues>
            8.2686409354209900e-02 -6.5636062622070312e-01</leafValues></_>
        <_>
          <internalNodes>
            0 -1 154 7.5406330870464444e-04</internalNodes>
          <leafValues>
            -1.4718583226203918e-01 3.0943006277084351e-01</leafValues></_>
        <_>
          <internalNodes>
            0 -1 274 -9.1266457457095385e-04</internalNodes>
          <leafValues>
            -5.2152007818222046e-01 8.2236967980861664e-02</leafValues></_>
        <_>
          <internalNodes>
            0 -1 83 -9.5223367214202881e-02</internalNodes>
          <leafValues>
            -4.7044625878334045e-01 7.6969295740127563e-02</leafValues></_>
        <_>
          <internalNodes>
            0 -1 376 1.4339691959321499e-02</internalNodes>
          <leafValues>
            6.3983745872974396e-02 -7.2736376523971558e-01</leafValues></_>
        <_>
          <internalNodes>
            0 -1 128 2.1839706227183342e-02</internalNodes>
          <leafValues>
            -1.8597599864006042e-01 2.7554321289062500e-01</leafValues></_>
        <_>
          <internalNodes>
            0 -1 269 -2.0363414660096169e-03</internalNodes>
          <leafValues>
            4.2325288057327271e-01 -9.5913298428058624e-02</leafValues></_>
        <_>
          <internalNodes>
            0 -1 249 -2.4365969002246857e-03</internalNodes>
          <leafValues>
            2.7474617958068848e-01 -1.8126957118511200e-01</leafValues></_>
        <_>
          <internalNodes>
            0 -1 216 7.8823212534189224e-03</internalNodes>
          <leafValues>
            7.0027589797973633e-02 -6.3874834775924683e-01</leafValues></_>
        <_>
          <internalNodes>
            0 -1 167 -7.7634034678339958e-03</internalNodes>
          <leafValues>
            4.1005018353462219e-01 -1.2804028391838074e-01</leafValues></_>
        <_>
          <internalNodes>
            0 -1 319 -2.6628295890986919e-03</internalNodes>
          <leafValues>
            -5.4400455951690674e-01 9.3839935958385468e-02</leafValues></_>
        <_>
          <internalNodes>
            0 -1 324 5.8640014380216599e-02</internalNodes>
          <leafValues>
            -9.3511372804641724e-02 4.7037866711616516e-01</leafValues></_>
        <_>
          <internalNodes>
            0 -1 258 -1.2470433861017227e-01</internalNodes>
          <leafValues>
            4.7037366032600403e-01 -1.1273586750030518e-01</leafValues></_>
        <_>
          <internalNodes>
            0 -1 193 -9.6569843590259552e-02</internalNodes>
          <leafValues>
            -4.9853566288948059e-01 1.0768175125122070e-01</leafValues></_>
        <_>
          <internalNodes>
            0 -1 314 1.7545826267451048e-03</internalNodes>
          <leafValues>
            -1.3445456326007843e-01 3.5582321882247925e-01</leafValues></_>
        <_>
          <internalNodes>
            0 -1 366 -3.1790258362889290e-03</internalNodes>
          <leafValues>
            -6.2965738773345947e-01 7.8754037618637085e-02</leafValues></_>
        <_>
          <internalNodes>
            0 -1 188 5.4751764982938766e-03</internalNodes>
          <leafValues>
            5.4064661264419556e-02 -6.8747913837432861e-01</leafValues></_>
        <_>
          <internalNodes>
            0 -1 267 -2.8180214576423168e-03</internalNodes>
          <leafValues>
            3.7666743993759155e-01 -1.2570139765739441e-01</leafValues></_>
        <_>
          <internalNodes>
            0 -1 155 4.0858983993530273e-02</internalNodes>
          <leafValues>
            7.7673822641372681e-02 -6.6601854562759399e-01</leafValues></_>
        <_>
          <internalNodes>
            0 -1 251 1.2512474786490202e-03</internalNodes>
          <leafValues>
            -1.5688607096672058e-01 3.0634859204292297e-01</leafValues></_>
        <_>
          <internalNodes>
            0 -1 77 -8.4553092718124390e-02</internalNodes>
          <leafValues>
            -6.6907751560211182e-01 6.4130261540412903e-02</leafValues></_>
        <_>
          <internalNodes>
            0 -1 74 2.3158253170549870e-03</internalNodes>
          <leafValues>
            -1.3983780145645142e-01 3.6014404892921448e-01</leafValues></_>
        <_>
          <internalNodes>
            0 -1 40 -6.5201926045119762e-03</internalNodes>
          <leafValues>
            9.1436481475830078e-01 -4.6568714082241058e-02</leafValues></_>
        <_>
          <internalNodes>
            0 -1 282 8.5467554163187742e-04</internalNodes>
          <leafValues>
            -1.4206734299659729e-01 3.2411962747573853e-01</leafValues></_>
        <_>
          <internalNodes>
            0 -1 95 -9.2095229774713516e-05</internalNodes>
          <leafValues>
            -3.2285147905349731e-01 1.4285969734191895e-01</leafValues></_>
        <_>
          <internalNodes>
            0 -1 355 -5.3507485426962376e-03</internalNodes>
          <leafValues>
            4.8750987648963928e-01 -9.6425987780094147e-02</leafValues></_>
        <_>
          <internalNodes>
            0 -1 118 -1.2869151309132576e-02</internalNodes>
          <leafValues>
            5.2944087982177734e-01 -8.8670112192630768e-02</leafValues></_>
        <_>
          <internalNodes>
            0 -1 116 8.0733984941616654e-04</internalNodes>
          <leafValues>
            -2.1977141499519348e-01 2.4358798563480377e-01</leafValues></_></weakClassifiers></_>
    <!-- stage 13 -->
    <_>
      <maxWeakCount>35</maxWeakCount>
      <stageThreshold>-5.8426815271377563e-01</stageThreshold>
      <weakClassifiers>
        <_>
          <internalNodes>
            0 -1 55 -2.8416484594345093e-02</internalNodes>
          <leafValues>
            4.8091602325439453e-01 -6.8337130360305309e-03</leafValues></_>
        <_>
          <internalNodes>
            0 -1 287 1.8978908658027649e-02</internalNodes>
          <leafValues>
            -2.3015636205673218e-01 2.9869079589843750e-01</leafValues></_>
        <_>
          <internalNodes>
            0 -1 351 -4.3647002428770065e-02</internalNodes>
          <leafValues>
            4.4345420598983765e-01 -1.2335473299026489e-01</leafValues></_>
        <_>
          <internalNodes>
            0 -1 331 -1.5754757914692163e-03</internalNodes>
          <leafValues>
            -7.3666161298751831e-01 2.1189566701650620e-02</leafValues></_>
        <_>
          <internalNodes>
            0 -1 140 5.4961950518190861e-03</internalNodes>
          <leafValues>
            -1.2972323596477509e-01 3.4811180830001831e-01</leafValues></_>
        <_>
          <internalNodes>
            0 -1 172 3.8041251245886087e-03</internalNodes>
          <leafValues>
            8.0702997744083405e-02 -5.6286638975143433e-01</leafValues></_>
        <_>
          <internalNodes>
            0 -1 212 -3.4412785898894072e-03</internalNodes>
          <leafValues>
            2.0408156514167786e-01 -2.2785213589668274e-01</leafValues></_>
        <_>
          <internalNodes>
            0 -1 358 2.8590175788849592e-03</internalNodes>
          <leafValues>
            -1.7021895945072174e-01 2.8135484457015991e-01</leafValues></_>
        <_>
          <internalNodes>
            0 -1 132 -4.8837963491678238e-02</internalNodes>
          <leafValues>
            -4.8716053366661072e-01 1.0284075886011124e-01</leafValues></_>
        <_>
          <internalNodes>
            0 -1 235 4.8308549448847771e-03</internalNodes>
          <leafValues>
            -9.5770597457885742e-02 4.8223233222961426e-01</leafValues></_>
        <_>
          <internalNodes>
            0 -1 231 -1.0366844944655895e-02</internalNodes>
          <leafValues>
            3.1709852814674377e-01 -1.4948807656764984e-01</leafValues></_>
        <_>
          <internalNodes>
            0 -1 322 -3.4082075580954552e-04</internalNodes>
          <leafValues>
            2.7937167882919312e-01 -1.6504308581352234e-01</leafValues></_>
        <_>
          <internalNodes>
            0 -1 147 1.2388417497277260e-02</internalNodes>
          <leafValues>
            7.1227759122848511e-02 -6.2926846742630005e-01</leafValues></_>
        <_>
          <internalNodes>
            0 -1 70 -6.0325022786855698e-03</internalNodes>
          <leafValues>
            -5.6560015678405762e-01 6.7829228937625885e-02</leafValues></_>
        <_>
          <internalNodes>
            0 -1 4 2.8497643768787384e-02</internalNodes>
          <leafValues>
            -1.0037675499916077e-01 5.2130067348480225e-01</leafValues></_>
        <_>
          <internalNodes>
            0 -1 179 -1.2705506384372711e-01</internalNodes>
          <leafValues>
            -5.6294918060302734e-01 9.2828899621963501e-02</leafValues></_>
        <_>
          <internalNodes>
            0 -1 92 -1.9046310335397720e-02</internalNodes>
          <leafValues>
            -7.9922936856746674e-02 6.5600484609603882e-01</leafValues></_>
        <_>
          <internalNodes>
            0 -1 68 -2.6458714157342911e-02</internalNodes>
          <leafValues>
            4.7613179683685303e-01 -1.0655815154314041e-01</leafValues></_>
        <_>
          <internalNodes>
            0 -1 353 -1.0800404474139214e-02</internalNodes>
          <leafValues>
            5.2845752239227295e-01 -8.1586688756942749e-02</leafValues></_>
        <_>
          <internalNodes>
            0 -1 206 -1.3774404069408774e-03</internalNodes>
          <leafValues>
            -7.8480023145675659e-01 7.2989821434020996e-02</leafValues></_>
        <_>
          <internalNodes>
            0 -1 236 -5.7086236774921417e-03</internalNodes>
          <leafValues>
            2.8947925567626953e-01 -1.6318079829216003e-01</leafValues></_>
        <_>
          <internalNodes>
            0 -1 239 -1.3103917008265853e-03</internalNodes>
          <leafValues>
            2.6265141367912292e-01 -1.8947418034076691e-01</leafValues></_>
        <_>
          <internalNodes>
            0 -1 253 8.3060038741677999e-04</internalNodes>
          <leafValues>
            9.0383209288120270e-02 -6.5045642852783203e-01</leafValues></_>
        <_>
          <internalNodes>
            0 -1 327 -1.1454339837655425e-03</internalNodes>
          <leafValues>
            2.9974126815795898e-01 -1.6330440342426300e-01</leafValues></_>
        <_>
          <internalNodes>
            0 -1 375 -2.1988353691995144e-03</internalNodes>
          <leafValues>
            -6.6847866773605347e-01 6.9751150906085968e-02</leafValues></_>
        <_>
          <internalNodes>
            0 -1 67 -7.3117087595164776e-03</internalNodes>
          <leafValues>
            -6.4767909049987793e-01 6.6611245274543762e-02</leafValues></_>
        <_>
          <internalNodes>
            0 -1 195 -1.3461341150105000e-03</internalNodes>
          <leafValues>
            -9.2476165294647217e-01 4.0346980094909668e-02</leafValues></_>
        <_>
          <internalNodes>
            0 -1 146 2.7764700353145599e-03</internalNodes>
          <leafValues>
            -1.1198144406080246e-01 4.6731799840927124e-01</leafValues></_>
        <_>
          <internalNodes>
            0 -1 111 -3.7248477339744568e-02</internalNodes>
          <leafValues>
            4.4872829318046570e-01 -1.0928595811128616e-01</leafValues></_>
        <_>
          <internalNodes>
            0 -1 29 2.3829014971852303e-03</internalNodes>
          <leafValues>
            -1.8785271048545837e-01 2.5104176998138428e-01</leafValues></_>
        <_>
          <internalNodes>
            0 -1 38 2.5232285261154175e-01</internalNodes>
          <leafValues>
            -8.7831273674964905e-02 6.0951000452041626e-01</leafValues></_>
        <_>
          <internalNodes>
            0 -1 86 1.0769614949822426e-02</internalNodes>
          <leafValues>
            -5.8941449970006943e-02 6.4997726678848267e-01</leafValues></_>
        <_>
          <internalNodes>
            0 -1 50 -1.0594354942440987e-02</internalNodes>
          <leafValues>
            3.5082259774208069e-01 -1.3889676332473755e-01</leafValues></_>
        <_>
          <internalNodes>
            0 -1 177 -2.1334290504455566e-02</internalNodes>
          <leafValues>
            3.7142187356948853e-01 -1.4171548187732697e-01</leafValues></_>
        <_>
          <internalNodes>
            0 -1 131 6.3819415867328644e-02</internalNodes>
          <leafValues>
            7.0570543408393860e-02 -6.7589050531387329e-01</leafValues></_></weakClassifiers></_>
    <!-- stage 14 -->
    <_>
      <maxWeakCount>33</maxWeakCount>
      <stageThreshold>-5.8034867048263550e-01</stageThreshold>
      <weakClassifiers>
        <_>
          <internalNodes>
            0 -1 379 -2.4483471643179655e-03</internalNodes>
          <leafValues>
            5.8174902200698853e-01 9.8712444305419922e-02</leafValues></_>
        <_>
          <internalNodes>
            0 -1 315 -4.8863806296139956e-04</internalNodes>
          <leafValues>
            2.2470675408840179e-01 -2.4643065035343170e-01</leafValues></_>
        <_>
          <internalNodes>
            0 -1 297 2.5673761963844299e-02</internalNodes>
          <leafValues>
            -1.6672950983047485e-01 3.4951752424240112e-01</leafValues></_>
        <_>
          <internalNodes>
            0 -1 69 -4.3063852936029434e-03</internalNodes>
          <leafValues>
            -1.1718111485242844e-01 6.1783742904663086e-01</leafValues></_>
        <_>
          <internalNodes>
            0 -1 136 -1.3044883962720633e-03</internalNodes>
          <leafValues>
            2.6087391376495361e-01 -1.5670138597488403e-01</leafValues></_>
        <_>
          <internalNodes>
            0 -1 39 -3.3958245068788528e-02</internalNodes>
          <leafValues>
            -7.8552401065826416e-01 3.0090099200606346e-02</leafValues></_>
        <_>
          <internalNodes>
            0 -1 65 -8.0644208937883377e-03</internalNodes>
          <leafValues>
            3.5263073444366455e-01 -1.3920219242572784e-01</leafValues></_>
        <_>
          <internalNodes>
            0 -1 64 -1.7665622290223837e-03</internalNodes>
          <leafValues>
            -8.3381223678588867e-01 4.6632625162601471e-02</leafValues></_>
        <_>
          <internalNodes>
            0 -1 171 -4.7366926446557045e-04</internalNodes>
          <leafValues>
            -4.7664231061935425e-01 8.8776484131813049e-02</leafValues></_>
        <_>
          <internalNodes>
            0 -1 276 -2.1399515680968761e-03</internalNodes>
          <leafValues>
            3.2332533597946167e-01 -1.3869227468967438e-01</leafValues></_>
        <_>
          <internalNodes>
            0 -1 313 3.0919811688363552e-03</internalNodes>
          <leafValues>
            8.9458920061588287e-02 -4.9634611606597900e-01</leafValues></_>
        <_>
          <internalNodes>
            0 -1 97 2.5603239191696048e-04</internalNodes>
          <leafValues>
            -2.3379960656166077e-01 1.7793495953083038e-01</leafValues></_>
        <_>
          <internalNodes>
            0 -1 233 2.8443207964301109e-02</internalNodes>
          <leafValues>
            -7.5852863490581512e-02 5.9333354234695435e-01</leafValues></_>
        <_>
          <internalNodes>
            0 -1 232 3.2724237535148859e-03</internalNodes>
          <leafValues>
            -1.4128130674362183e-01 3.4679105877876282e-01</leafValues></_>
        <_>
          <internalNodes>
            0 -1 208 4.2596040293574333e-03</internalNodes>
          <leafValues>
            1.0092850774526596e-01 -4.3554905056953430e-01</leafValues></_>
        <_>
          <internalNodes>
            0 -1 252 -1.3263914734125137e-03</internalNodes>
          <leafValues>
            2.8813633322715759e-01 -1.4827245473861694e-01</leafValues></_>
        <_>
          <internalNodes>
            0 -1 165 -6.8454383872449398e-03</internalNodes>
          <leafValues>
            -6.1898696422576904e-01 7.2936393320560455e-02</leafValues></_>
        <_>
          <internalNodes>
            0 -1 301 -1.0584478732198477e-03</internalNodes>
          <leafValues>
            3.4181612730026245e-01 -1.3579399883747101e-01</leafValues></_>
        <_>
          <internalNodes>
            0 -1 280 9.4390171580016613e-04</internalNodes>
          <leafValues>
            -1.1501660943031311e-01 4.4482141733169556e-01</leafValues></_>
        <_>
          <internalNodes>
            0 -1 377 2.9765756335109472e-03</internalNodes>
          <leafValues>
            7.8516818583011627e-02 -6.8613797426223755e-01</leafValues></_>
        <_>
          <internalNodes>
            0 -1 24 -6.2519195489585400e-04</internalNodes>
          <leafValues>
            -3.9857357740402222e-01 1.1144457012414932e-01</leafValues></_>
        <_>
          <internalNodes>
            0 -1 302 -5.4967324249446392e-03</internalNodes>
          <leafValues>
            -6.8682891130447388e-01 6.6068857908248901e-02</leafValues></_>
        <_>
          <internalNodes>
            0 -1 217 -7.5407582335174084e-04</internalNodes>
          <leafValues>
            -4.4594573974609375e-01 9.7620047628879547e-02</leafValues></_>
        <_>
          <internalNodes>
            0 -1 0 2.7312105521559715e-03</internalNodes>
          <leafValues>
            -1.1469244956970215e-01 3.9400574564933777e-01</leafValues></_>
        <_>
          <internalNodes>
            0 -1 2 -1.0006797499954700e-02</internalNodes>
          <leafValues>
            5.0481766462326050e-01 -9.8680019378662109e-02</leafValues></_>
        <_>
          <internalNodes>
            0 -1 244 9.1102924197912216e-03</internalNodes>
          <leafValues>
            8.1824138760566711e-02 -6.3224601745605469e-01</leafValues></_>
        <_>
          <internalNodes>
            0 -1 99 4.0814794600009918e-02</internalNodes>
          <leafValues>
            -1.1187339574098587e-01 4.4083189964294434e-01</leafValues></_>
        <_>
          <internalNodes>
            0 -1 106 4.1228695772588253e-04</internalNodes>
          <leafValues>
            -2.9860070347785950e-01 1.5741974115371704e-01</leafValues></_>
        <_>
          <internalNodes>
            0 -1 144 4.9592357128858566e-02</internalNodes>
          <leafValues>
            -7.0491015911102295e-02 7.6566362380981445e-01</leafValues></_>
        <_>
          <internalNodes>
            0 -1 16 -6.1641771346330643e-02</internalNodes>
          <leafValues>
            6.2255001068115234e-01 -6.6557109355926514e-02</leafValues></_>
        <_>
          <internalNodes>
            0 -1 385 -1.3935384340584278e-03</internalNodes>
          <leafValues>
            -5.0515323877334595e-01 1.0123509168624878e-01</leafValues></_>
        <_>
          <internalNodes>
            0 -1 79 1.2546738144010305e-03</internalNodes>
          <leafValues>
            9.4204157590866089e-02 -4.7517129778862000e-01</leafValues></_>
        <_>
          <internalNodes>
            0 -1 295 -5.1736366003751755e-03</internalNodes>
          <leafValues>
            3.8641321659088135e-01 -1.4199410378932953e-01</leafValues></_></weakClassifiers></_></stages>
  <features>
    <_>
      <rects>
        <_>
          0 0 2 4 -1.</_>
        <_>
          1 0 1 4 2.</_></rects>
      <tilted>0</tilted></_>
    <_>
      <rects>
        <_>
          0 0 2 6 -1.</_>
        <_>
          1 0 1 6 2.</_></rects>
      <tilted>0</tilted></_>
    <_>
      <rects>
        <_>
          0 0 2 12 -1.</_>
        <_>
          1 0 1 12 2.</_></rects>
      <tilted>0</tilted></_>
    <_>
      <rects>
        <_>
          0 0 2 3 -1.</_>
        <_>
          0 1 2 1 2.</_></rects>
      <tilted>0</tilted></_>
    <_>
      <rects>
        <_>
          0 0 4 8 -1.</_>
        <_>
          2 0 2 8 2.</_></rects>
      <tilted>0</tilted></_>
    <_>
      <rects>
        <_>
          0 0 3 2 -1.</_>
        <_>
          0 1 3 1 2.</_></rects>
      <tilted>0</tilted></_>
    <_>
      <rects>
        <_>
          0 0 6 3 -1.</_>
        <_>
          3 0 3 3 2.</_></rects>
      <tilted>0</tilted></_>
    <_>
      <rects>
        <_>
          0 0 6 16 -1.</_>
        <_>
          3 0 3 16 2.</_></rects>
      <tilted>0</tilted></_>
    <_>
      <rects>
        <_>
          0 0 8 2 -1.</_>
        <_>
          4 0 4 2 2.</_></rects>
      <tilted>0</tilted></_>
    <_>
      <rects>
        <_>
          0 0 8 4 -1.</_>
        <_>
          4 0 4 4 2.</_></rects>
      <tilted>0</tilted></_>
    <_>
      <rects>
        <_>
          0 0 8 10 -1.</_>
        <_>
          0 0 4 5 2.</_>
        <_>
          4 5 4 5 2.</_></rects>
      <tilted>0</tilted></_>
    <_>
      <rects>
        <_>
          0 0 10 2 -1.</_>
        <_>
          5 0 5 2 2.</_></rects>
      <tilted>0</tilted></_>
    <_>
      <rects>
        <_>
          0 0 12 3 -1.</_>
        <_>
          6 0 6 3 2.</_></rects>
      <tilted>0</tilted></_>
    <_>
      <rects>
        <_>
          0 0 12 10 -1.</_>
        <_>
          0 0 6 5 2.</_>
        <_>
          6 5 6 5 2.</_></rects>
      <tilted>0</tilted></_>
    <_>
      <rects>
        <_>
          0 0 14 4 -1.</_>
        <_>
          7 0 7 4 2.</_></rects>
      <tilted>0</tilted></_>
    <_>
      <rects>
        <_>
          0 0 18 5 -1.</_>
        <_>
          9 0 9 5 2.</_></rects>
      <tilted>0</tilted></_>
    <_>
      <rects>
        <_>
          0 0 20 6 -1.</_>
        <_>
          10 0 10 6 2.</_></rects>
      <tilted>0</tilted></_>
    <_>
      <rects>
        <_>
          0 1 4 4 -1.</_>
        <_>
          2 1 2 4 2.</_></rects>
      <tilted>0</tilted></_>
    <_>
      <rects>
        <_>
          0 2 10 22 -1.</_>
        <_>
          5 2 5 22 2.</_></rects>
      <tilted>0</tilted></_>
    <_>
      <rects>
        <_>
          0 3 8 16 -1.</_>
        <_>
          4 3 4 16 2.</_></rects>
      <tilted>0</tilted></_>
    <_>
      <rects>
        <_>
          0 4 4 6 -1.</_>
        <_>
          2 4 2 6 2.</_></rects>
      <tilted>0</tilted></_>
    <_>
      <rects>
        <_>
          0 4 4 9 -1.</_>
        <_>
          2 4 2 9 2.</_></rects>
      <tilted>0</tilted></_>
    <_>
      <rects>
        <_>
          0 4 4 20 -1.</_>
        <_>
          2 4 2 20 2.</_></rects>
      <tilted>0</tilted></_>
    <_>
      <rects>
        <_>
          0 4 22 10 -1.</_>
        <_>
          0 9 22 5 2.</_></rects>
      <tilted>0</tilted></_>
    <_>
      <rects>
        <_>
          0 5 2 2 -1.</_>
        <_>
          0 6 2 1 2.</_></rects>
      <tilted>0</tilted></_>
    <_>
      <rects>
        <_>
          0 6 8 8 -1.</_>
        <_>
          0 6 4 4 2.</_>
        <_>
          4 10 4 4 2.</_></rects>
      <tilted>0</tilted></_>
    <_>
      <rects>
        <_>
          0 6 24 14 -1.</_>
        <_>
          0 6 12 7 2.</_>
        <_>
          12 13 12 7 2.</_></rects>
      <tilted>0</tilted></_>
    <_>
      <rects>
        <_>
          0 7 8 14 -1.</_>
        <_>
          4 7 4 14 2.</_></rects>
      <tilted>0</tilted></_>
    <_>
      <rects>
        <_>
          0 7 8 17 -1.</_>
        <_>
          4 7 4 17 2.</_></rects>
      <tilted>0</tilted></_>
    <_>
      <rects>
        <_>
          0 7 9 2 -1.</_>
        <_>
          0 8 9 1 2.</_></rects>
      <tilted>0</tilted></_>
    <_>
      <rects>
        <_>
          0 8 4 10 -1.</_>
        <_>
          0 8 2 5 2.</_>
        <_>
          2 13 2 5 2.</_></rects>
      <tilted>0</tilted></_>
    <_>
      <rects>
        <_>
          0 8 24 10 -1.</_>
        <_>
          0 8 12 5 2.</_>
        <_>
          12 13 12 5 2.</_></rects>
      <tilted>0</tilted></_>
    <_>
      <rects>
        <_>
          0 9 6 7 -1.</_>
        <_>
          3 9 3 7 2.</_></rects>
      <tilted>0</tilted></_>
    <_>
      <rects>
        <_>
          0 9 22 2 -1.</_>
        <_>
          0 9 11 1 2.</_>
        <_>
          11 10 11 1 2.</_></rects>
      <tilted>0</tilted></_>
    <_>
      <rects>
        <_>
          0 9 14 2 -1.</_>
        <_>
          0 10 14 1 2.</_></rects>
      <tilted>0</tilted></_>
    <_>
      <rects>
        <_>
          0 10 6 7 -1.</_>
        <_>
          3 10 3 7 2.</_></rects>
      <tilted>0</tilted></_>
    <_>
      <rects>
        <_>
          0 11 2 2 -1.</_>
        <_>
          0 12 2 1 2.</_></rects>
      <tilted>0</tilted></_>
    <_>
      <rects>
        <_>
          0 12 4 2 -1.</_>
        <_>
          2 12 2 2 2.</_></rects>
      <tilted>0</tilted></_>
    <_>
      <rects>
        <_>
          0 12 20 12 -1.</_>
        <_>
          10 12 10 12 2.</_></rects>
      <tilted>0</tilted></_>
    <_>
      <rects>
        <_>
          0 13 10 4 -1.</_>
        <_>
          0 15 10 2 2.</_></rects>
      <tilted>0</tilted></_>
    <_>
      <rects>
        <_>
          0 14 4 1 -1.</_>
        <_>
          2 14 2 1 2.</_></rects>
      <tilted>0</tilted></_>
    <_>
      <rects>
        <_>
          0 16 6 8 -1.</_>
        <_>
          0 16 3 4 2.</_>
        <_>
          3 20 3 4 2.</_></rects>
      <tilted>0</tilted></_>
    <_>
      <rects>
        <_>
          0 17 10 7 -1.</_>
        <_>
          5 17 5 7 2.</_></rects>
      <tilted>0</tilted></_>
    <_>
      <rects>
        <_>
          0 17 12 7 -1.</_>
        <_>
          6 17 6 7 2.</_></rects>
      <tilted>0</tilted></_>
    <_>
      <rects>
        <_>
          0 17 7 2 -1.</_>
        <_>
          0 18 7 1 2.</_></rects>
      <tilted>0</tilted></_>
    <_>
      <rects>
        <_>
          0 17 8 2 -1.</_>
        <_>
          0 18 8 1 2.</_></rects>
      <tilted>0</tilted></_>
    <_>
      <rects>
        <_>
          0 18 8 4 -1.</_>
        <_>
          4 18 4 4 2.</_></rects>
      <tilted>0</tilted></_>
    <_>
      <rects>
        <_>
          0 18 8 2 -1.</_>
        <_>
          0 19 8 1 2.</_></rects>
      <tilted>0</tilted></_>
    <_>
      <rects>
        <_>
          0 19 10 3 -1.</_>
        <_>
          5 19 5 3 2.</_></rects>
      <tilted>0</tilted></_>
    <_>
      <rects>
        <_>
          0 20 1 4 -1.</_>
        <_>
          0 22 1 2 2.</_></rects>
      <tilted>0</tilted></_>
    <_>
      <rects>
        <_>
          0 21 8 3 -1.</_>
        <_>
          4 21 4 3 2.</_></rects>
      <tilted>0</tilted></_>
    <_>
      <rects>
        <_>
          0 23 8 1 -1.</_>
        <_>
          4 23 4 1 2.</_></rects>
      <tilted>0</tilted></_>
    <_>
      <rects>
        <_>
          0 23 12 1 -1.</_>
        <_>
          6 23 6 1 2.</_></rects>
      <tilted>0</tilted></_>
    <_>
      <rects>
        <_>
          0 23 14 1 -1.</_>
        <_>
          7 23 7 1 2.</_></rects>
      <tilted>0</tilted></_>
    <_>
      <rects>
        <_>
          1 0 4 6 -1.</_>
        <_>
          3 0 2 6 2.</_></rects>
      <tilted>0</tilted></_>
    <_>
      <rects>
        <_>
          1 0 16 18 -1.</_>
        <_>
          1 0 8 9 2.</_>
        <_>
          9 9 8 9 2.</_></rects>
      <tilted>0</tilted></_>
    <_>
      <rects>
        <_>
          1 3 4 17 -1.</_>
        <_>
          3 3 2 17 2.</_></rects>
      <tilted>0</tilted></_>
    <_>
      <rects>
        <_>
          1 3 12 1 -1.</_>
        <_>
          7 3 6 1 2.</_></rects>
      <tilted>0</tilted></_>
    <_>
      <rects>
        <_>
          1 3 16 14 -1.</_>
        <_>
          1 10 16 7 2.</_></rects>
      <tilted>0</tilted></_>
    <_>
      <rects>
        <_>
          1 4 15 12 -1.</_>
        <_>
          1 10 15 6 2.</_></rects>
      <tilted>0</tilted></_>
    <_>
      <rects>
        <_>
          1 5 8 8 -1.</_>
        <_>
          1 9 8 4 2.</_></rects>
      <tilted>0</tilted></_>
    <_>
      <rects>
        <_>
          1 5 19 8 -1.</_>
        <_>
          1 9 19 4 2.</_></rects>
      <tilted>0</tilted></_>
    <_>
      <rects>
        <_>
          1 6 8 6 -1.</_>
        <_>
          1 9 8 3 2.</_></rects>
      <tilted>0</tilted></_>
    <_>
      <rects>
        <_>
          1 8 20 6 -1.</_>
        <_>
          1 11 20 3 2.</_></rects>
      <tilted>0</tilted></_>
    <_>
      <rects>
        <_>
          1 9 2 2 -1.</_>
        <_>
          1 10 2 1 2.</_></rects>
      <tilted>0</tilted></_>
    <_>
      <rects>
        <_>
          1 14 16 2 -1.</_>
        <_>
          1 15 16 1 2.</_></rects>
      <tilted>0</tilted></_>
    <_>
      <rects>
        <_>
          1 16 6 7 -1.</_>
        <_>
          4 16 3 7 2.</_></rects>
      <tilted>0</tilted></_>
    <_>
      <rects>
        <_>
          1 16 8 2 -1.</_>
        <_>
          1 17 8 1 2.</_></rects>
      <tilted>0</tilted></_>
    <_>
      <rects>
        <_>
          1 21 14 3 -1.</_>
        <_>
          8 21 7 3 2.</_></rects>
      <tilted>0</tilted></_>
    <_>
      <rects>
        <_>
          1 22 3 2 -1.</_>
        <_>
          2 22 1 2 2.</_></rects>
      <tilted>0</tilted></_>
    <_>
      <rects>
        <_>
          1 22 8 2 -1.</_>
        <_>
          1 23 8 1 2.</_></rects>
      <tilted>0</tilted></_>
    <_>
      <rects>
        <_>
          2 1 17 2 -1.</_>
        <_>
          2 2 17 1 2.</_></rects>
      <tilted>0</tilted></_>
    <_>
      <rects>
        <_>
          2 5 6 16 -1.</_>
        <_>
          5 5 3 16 2.</_></rects>
      <tilted>0</tilted></_>
    <_>
      <rects>
        <_>
          2 5 22 12 -1.</_>
        <_>
          2 5 11 6 2.</_>
        <_>
          13 11 11 6 2.</_></rects>
      <tilted>0</tilted></_>
    <_>
      <rects>
        <_>
          2 6 2 18 -1.</_>
        <_>
          2 6 1 9 2.</_>
        <_>
          3 15 1 9 2.</_></rects>
      <tilted>0</tilted></_>
    <_>
      <rects>
        <_>
          2 6 20 8 -1.</_>
        <_>
          2 10 20 4 2.</_></rects>
      <tilted>0</tilted></_>
    <_>
      <rects>
        <_>
          2 7 22 4 -1.</_>
        <_>
          2 9 22 2 2.</_></rects>
      <tilted>0</tilted></_>
    <_>
      <rects>
        <_>
          2 10 20 12 -1.</_>
        <_>
          2 10 10 6 2.</_>
        <_>
          12 16 10 6 2.</_></rects>
      <tilted>0</tilted></_>
    <_>
      <rects>
        <_>
          2 12 3 2 -1.</_>
        <_>
          2 13 3 1 2.</_></rects>
      <tilted>0</tilted></_>
    <_>
      <rects>
        <_>
          2 13 4 2 -1.</_>
        <_>
          2 14 4 1 2.</_></rects>
      <tilted>0</tilted></_>
    <_>
      <rects>
        <_>
          2 14 3 2 -1.</_>
        <_>
          2 15 3 1 2.</_></rects>
      <tilted>0</tilted></_>
    <_>
      <rects>
        <_>
          2 14 6 10 -1.</_>
        <_>
          2 14 3 5 2.</_>
        <_>
          5 19 3 5 2.</_></rects>
      <tilted>0</tilted></_>
    <_>
      <rects>
        <_>
          2 14 20 10 -1.</_>
        <_>
          12 14 10 10 2.</_></rects>
      <tilted>0</tilted></_>
    <_>
      <rects>
        <_>
          2 14 20 8 -1.</_>
        <_>
          2 18 20 4 2.</_></rects>
      <tilted>0</tilted></_>
    <_>
      <rects>
        <_>
          2 15 5 2 -1.</_>
        <_>
          2 16 5 1 2.</_></rects>
      <tilted>0</tilted></_>
    <_>
      <rects>
        <_>
          2 16 4 6 -1.</_>
        <_>
          4 16 2 6 2.</_></rects>
      <tilted>0</tilted></_>
    <_>
      <rects>
        <_>
          2 18 4 6 -1.</_>
        <_>
          2 18 2 3 2.</_>
        <_>
          4 21 2 3 2.</_></rects>
      <tilted>0</tilted></_>
    <_>
      <rects>
        <_>
          2 18 8 6 -1.</_>
        <_>
          2 18 4 3 2.</_>
        <_>
          6 21 4 3 2.</_></rects>
      <tilted>0</tilted></_>
    <_>
      <rects>
        <_>
          2 20 6 2 -1.</_>
        <_>
          2 21 6 1 2.</_></rects>
      <tilted>0</tilted></_>
    <_>
      <rects>
        <_>
          2 21 8 3 -1.</_>
        <_>
          6 21 4 3 2.</_></rects>
      <tilted>0</tilted></_>
    <_>
      <rects>
        <_>
          2 22 12 2 -1.</_>
        <_>
          8 22 6 2 2.</_></rects>
      <tilted>0</tilted></_>
    <_>
      <rects>
        <_>
          2 22 21 1 -1.</_>
        <_>
          9 22 7 1 2.</_></rects>
      <tilted>0</tilted></_>
    <_>
      <rects>
        <_>
          2 22 21 2 -1.</_>
        <_>
          9 22 7 2 2.</_></rects>
      <tilted>0</tilted></_>
    <_>
      <rects>
        <_>
          2 22 17 2 -1.</_>
        <_>
          2 23 17 1 2.</_></rects>
      <tilted>0</tilted></_>
    <_>
      <rects>
        <_>
          2 23 21 1 -1.</_>
        <_>
          9 23 7 1 2.</_></rects>
      <tilted>0</tilted></_>
    <_>
      <rects>
        <_>
          3 0 2 1 -1.</_>
        <_>
          4 0 1 1 2.</_></rects>
      <tilted>0</tilted></_>
    <_>
      <rects>
        <_>
          3 0 18 6 -1.</_>
        <_>
          3 3 18 3 2.</_></rects>
      <tilted>0</tilted></_>
    <_>
      <rects>
        <_>
          3 0 21 2 -1.</_>
        <_>
          3 1 21 1 2.</_></rects>
      <tilted>0</tilted></_>
    <_>
      <rects>
        <_>
          3 5 12 2 -1.</_>
        <_>
          9 5 6 2 2.</_></rects>
      <tilted>0</tilted></_>
    <_>
      <rects>
        <_>
          3 12 10 12 -1.</_>
        <_>
          3 12 5 6 2.</_>
        <_>
          8 18 5 6 2.</_></rects>
      <tilted>0</tilted></_>
    <_>
      <rects>
        <_>
          3 13 2 7 -1.</_>
        <_>
          4 13 1 7 2.</_></rects>
      <tilted>0</tilted></_>
    <_>
      <rects>
        <_>
          3 13 20 4 -1.</_>
        <_>
          3 15 20 2 2.</_></rects>
      <tilted>0</tilted></_>
    <_>
      <rects>
        <_>
          3 16 4 6 -1.</_>
        <_>
          3 16 2 3 2.</_>
        <_>
          5 19 2 3 2.</_></rects>
      <tilted>0</tilted></_>
    <_>
      <rects>
        <_>
          3 18 1 2 -1.</_>
        <_>
          3 19 1 1 2.</_></rects>
      <tilted>0</tilted></_>
    <_>
      <rects>
        <_>
          3 20 12 4 -1.</_>
        <_>
          3 20 6 2 2.</_>
        <_>
          9 22 6 2 2.</_></rects>
      <tilted>0</tilted></_>
    <_>
      <rects>
        <_>
          4 0 4 1 -1.</_>
        <_>
          6 0 2 1 2.</_></rects>
      <tilted>0</tilted></_>
    <_>
      <rects>
        <_>
          4 0 4 2 -1.</_>
        <_>
          6 0 2 2 2.</_></rects>
      <tilted>0</tilted></_>
    <_>
      <rects>
        <_>
          4 0 6 2 -1.</_>
        <_>
          7 0 3 2 2.</_></rects>
      <tilted>0</tilted></_>
    <_>
      <rects>
        <_>
          4 0 20 18 -1.</_>
        <_>
          14 0 10 18 2.</_></rects>
      <tilted>0</tilted></_>
    <_>
      <rects>
        <_>
          4 0 15 6 -1.</_>
        <_>
          4 3 15 3 2.</_></rects>
      <tilted>0</tilted></_>
    <_>
      <rects>
        <_>
          4 4 14 5 -1.</_>
        <_>
          11 4 7 5 2.</_></rects>
      <tilted>0</tilted></_>
    <_>
      <rects>
        <_>
          4 4 13 6 -1.</_>
        <_>
          4 7 13 3 2.</_></rects>
      <tilted>0</tilted></_>
    <_>
      <rects>
        <_>
          4 6 17 2 -1.</_>
        <_>
          4 7 17 1 2.</_></rects>
      <tilted>0</tilted></_>
    <_>
      <rects>
        <_>
          4 7 18 12 -1.</_>
        <_>
          4 7 9 6 2.</_>
        <_>
          13 13 9 6 2.</_></rects>
      <tilted>0</tilted></_>
    <_>
      <rects>
        <_>
          4 16 8 4 -1.</_>
        <_>
          4 16 4 2 2.</_>
        <_>
          8 18 4 2 2.</_></rects>
      <tilted>0</tilted></_>
    <_>
      <rects>
        <_>
          4 18 8 6 -1.</_>
        <_>
          4 18 4 3 2.</_>
        <_>
          8 21 4 3 2.</_></rects>
      <tilted>0</tilted></_>
    <_>
      <rects>
        <_>
          4 18 12 1 -1.</_>
        <_>
          10 18 6 1 2.</_></rects>
      <tilted>0</tilted></_>
    <_>
      <rects>
        <_>
          4 20 10 4 -1.</_>
        <_>
          4 20 5 2 2.</_>
        <_>
          9 22 5 2 2.</_></rects>
      <tilted>0</tilted></_>
    <_>
      <rects>
        <_>
          4 23 16 1 -1.</_>
        <_>
          12 23 8 1 2.</_></rects>
      <tilted>0</tilted></_>
    <_>
      <rects>
        <_>
          5 0 6 2 -1.</_>
        <_>
          5 0 3 1 2.</_>
        <_>
          8 1 3 1 2.</_></rects>
      <tilted>0</tilted></_>
    <_>
      <rects>
        <_>
          5 1 2 1 -1.</_>
        <_>
          6 1 1 1 2.</_></rects>
      <tilted>0</tilted></_>
    <_>
      <rects>
        <_>
          5 3 8 12 -1.</_>
        <_>
          5 3 4 6 2.</_>
        <_>
          9 9 4 6 2.</_></rects>
      <tilted>0</tilted></_>
    <_>
      <rects>
        <_>
          5 3 18 14 -1.</_>
        <_>
          5 10 18 7 2.</_></rects>
      <tilted>0</tilted></_>
    <_>
      <rects>
        <_>
          5 4 2 18 -1.</_>
        <_>
          5 4 1 9 2.</_>
        <_>
          6 13 1 9 2.</_></rects>
      <tilted>0</tilted></_>
    <_>
      <rects>
        <_>
          5 4 6 2 -1.</_>
        <_>
          5 4 3 1 2.</_>
        <_>
          8 5 3 1 2.</_></rects>
      <tilted>0</tilted></_>
    <_>
      <rects>
        <_>
          5 4 8 12 -1.</_>
        <_>
          5 4 4 6 2.</_>
        <_>
          9 10 4 6 2.</_></rects>
      <tilted>0</tilted></_>
    <_>
      <rects>
        <_>
          5 5 8 16 -1.</_>
        <_>
          5 13 8 8 2.</_></rects>
      <tilted>0</tilted></_>
    <_>
      <rects>
        <_>
          5 5 17 4 -1.</_>
        <_>
          5 7 17 2 2.</_></rects>
      <tilted>0</tilted></_>
    <_>
      <rects>
        <_>
          5 6 14 4 -1.</_>
        <_>
          5 8 14 2 2.</_></rects>
      <tilted>0</tilted></_>
    <_>
      <rects>
        <_>
          5 6 14 18 -1.</_>
        <_>
          5 15 14 9 2.</_></rects>
      <tilted>0</tilted></_>
    <_>
      <rects>
        <_>
          5 7 3 6 -1.</_>
        <_>
          5 10 3 3 2.</_></rects>
      <tilted>0</tilted></_>
    <_>
      <rects>
        <_>
          5 7 14 12 -1.</_>
        <_>
          5 7 7 6 2.</_>
        <_>
          12 13 7 6 2.</_></rects>
      <tilted>0</tilted></_>
    <_>
      <rects>
        <_>
          5 8 16 14 -1.</_>
        <_>
          5 8 8 7 2.</_>
        <_>
          13 15 8 7 2.</_></rects>
      <tilted>0</tilted></_>
    <_>
      <rects>
        <_>
          5 8 11 2 -1.</_>
        <_>
          5 9 11 1 2.</_></rects>
      <tilted>0</tilted></_>
    <_>
      <rects>
        <_>
          5 9 16 14 -1.</_>
        <_>
          5 9 8 7 2.</_>
