<?xml version="1.0"?>
<opencv_storage>
<stage12>
  <maxWeakCount>34</maxWeakCount>
  <stageThreshold>-5.4032975435256958e-01</stageThreshold>
  <weakClassifiers>
    <_>
      <internalNodes>
        0 -1 144252 -3.1844468321651220e-03</internalNodes>
      <leafValues>
        4.8427674174308777e-01 -2.3255813866853714e-02</leafValues></_>
    <_>
      <internalNodes>
        0 -1 63796 -2.1188370883464813e-02</internalNodes>
      <leafValues>
        3.1651586294174194e-01 -1.8406742811203003e-01</leafValues></_>
    <_>
      <internalNodes>
        0 -1 116987 -3.3079855144023895e-02</internalNodes>
      <leafValues>
        -5.8729052543640137e-01 9.2591352760791779e-02</leafValues></_>
    <_>
      <internalNodes>
        0 -1 13497 6.4566237851977348e-03</internalNodes>
      <leafValues>
        -1.9851677119731903e-01 2.3875857889652252e-01</leafValues></_>
    <_>
      <internalNodes>
        0 -1 148197 -2.1305459085851908e-03</internalNodes>
      <leafValues>
        3.1423375010490417e-01 -1.4490862190723419e-01</leafValues></_>
    <_>
      <internalNodes>
        0 -1 148299 1.0349277406930923e-02</internalNodes>
      <leafValues>
        -1.0970384627580643e-01 6.8441343307495117e-01</leafValues></_>
    <_>
      <internalNodes>
        0 -1 161972 8.9508877135813236e-04</internalNodes>
      <leafValues>
        8.2686409354209900e-02 -6.5636062622070312e-01</leafValues></_>
    <_>
      <internalNodes>
        0 -1 80483 7.5406330870464444e-04</internalNodes>
      <leafValues>
        -1.4718583226203918e-01 3.0943006277084351e-01</leafValues></_>
    <_>
      <internalNodes>
        0 -1 128040 -9.1266457457095385e-04</internalNodes>
      <leafValues>
        -5.2152007818222046e-01 8.2236967980861664e-02</leafValues></_>
    <_>
      <internalNodes>
        0 -1 36228 -9.5223367214202881e-02</internalNodes>
      <leafValues>
        -4.7044625878334045e-01 7.6969295740127563e-02</leafValues></_>
    <_>
      <internalNodes>
        0 -1 160442 1.4339691959321499e-02</internalNodes>
      <leafValues>
        6.3983745872974396e-02 -7.2736376523971558e-01</leafValues></_>
    <_>
      <internalNodes>
        0 -1 65462 2.1839706227183342e-02</internalNodes>
      <leafValues>
        -1.8597599864006042e-01 2.7554321289062500e-01</leafValues></_>
    <_>
      <internalNodes>
        0 -1 127777 -2.0363414660096169e-03</internalNodes>
      <leafValues>
        4.2325288057327271e-01 -9.5913298428058624e-02</leafValues></_>
    <_>
      <internalNodes>
        0 -1 121114 -2.4365969002246857e-03</internalNodes>
      <leafValues>
        2.7474617958068848e-01 -1.8126957118511200e-01</leafValues></_>
    <_>
      <internalNodes>
        0 -1 110846 7.8823212534189224e-03</internalNodes>
      <leafValues>
        7.0027589797973633e-02 -6.3874834775924683e-01</leafValues></_>
    <_>
      <internalNodes>
        0 -1 88768 -7.7634034678339958e-03</internalNodes>
      <leafValues>
        4.1005018353462219e-01 -1.2804028391838074e-01</leafValues></_>
    <_>
      <internalNodes>
        0 -1 144393 -2.6628295890986919e-03</internalNodes>
      <leafValues>
        -5.4400455951690674e-01 9.3839935958385468e-02</leafValues></_>
    <_>
      <internalNodes>
        0 -1 146092 5.8640014380216599e-02</internalNodes>
      <leafValues>
        -9.3511372804641724e-02 4.7037866711616516e-01</leafValues></_>
    <_>
      <internalNodes>
        0 -1 121752 -1.2470433861017227e-01</internalNodes>
      <leafValues>
        4.7037366032600403e-01 -1.1273586750030518e-01</leafValues></_>
    <_>
      <internalNodes>
        0 -1 99198 -9.6569843590259552e-02</internalNodes>
      <leafValues>
        -4.9853566288948059e-01 1.0768175125122070e-01</leafValues></_>
    <_>
      <internalNodes>
        0 -1 143652 1.7545826267451048e-03</internalNodes>
      <leafValues>
        -1.3445456326007843e-01 3.5582321882247925e-01</leafValues></_>
    <_>
      <internalNodes>
        0 -1 157578 -3.1790258362889290e-03</internalNodes>
      <leafValues>
        -6.2965738773345947e-01 7.8754037618637085e-02</leafValues></_>
    <_>
      <internalNodes>
        0 -1 98278 5.4751764982938766e-03</internalNodes>
      <leafValues>
        5.4064661264419556e-02 -6.8747913837432861e-01</leafValues></_>
    <_>
      <internalNodes>
        0 -1 126902 -2.8180214576423168e-03</internalNodes>
      <leafValues>
        3.7666743993759155e-01 -1.2570139765739441e-01</leafValues></_>
    <_>
      <internalNodes>
        0 -1 80594 4.0858983993530273e-02</internalNodes>
      <leafValues>
        7.7673822641372681e-02 -6.6601854562759399e-01</leafValues></_>
    <_>
      <internalNodes>
        0 -1 121182 1.2512474786490202e-03</internalNodes>
      <leafValues>
        -1.5688607096672058e-01 3.0634859204292297e-01</leafValues></_>
    <_>
      <internalNodes>
        0 -1 34220 -8.4553092718124390e-02</internalNodes>
      <leafValues>
        -6.6907751560211182e-01 6.4130261540412903e-02</leafValues></_>
    <_>
      <internalNodes>
        0 -1 31148 2.3158253170549870e-03</internalNodes>
      <leafValues>
        -1.3983780145645142e-01 3.6014404892921448e-01</leafValues></_>
    <_>
      <internalNodes>
        0 -1 11065 -6.5201926045119762e-03</internalNodes>
      <leafValues>
        9.1436481475830078e-01 -4.6568714082241058e-02</leafValues></_>
    <_>
      <internalNodes>
        0 -1 133410 8.5467554163187742e-04</internalNodes>
      <leafValues>
        -1.4206734299659729e-01 3.2411962747573853e-01</leafValues></_>
    <_>
      <internalNodes>
        0 -1 37980 -9.2095229774713516e-05</internalNodes>
      <leafValues>
        -3.2285147905349731e-01 1.4285969734191895e-01</leafValues></_>
    <_>
      <internalNodes>
        0 -1 155166 -5.3507485426962376e-03</internalNodes>
      <leafValues>
        4.8750987648963928e-01 -9.6425987780094147e-02</leafValues></_>
    <_>
      <internalNodes>
        0 -1 60433 -1.2869151309132576e-02</internalNodes>
      <leafValues>
        5.2944087982177734e-01 -8.8670112192630768e-02</leafValues></_>
    <_>
      <internalNodes>
        0 -1 59830 8.0733984941616654e-04</internalNodes>
      <leafValues>
        -2.1977141499519348e-01 2.4358798563480377e-01</leafValues></_></weakClassifiers></stage12>
</opencv_storage>
